116 100
year 0.07615284 0.13405892 -0.02056185 -0.03629729 0.025900505 -0.21463051 0.09732786 0.23267916 -0.08438625 -0.11154225 -0.036475047 -0.15823823 -0.009153632 0.06875115 0.085479416 -0.07137468 -0.002964184 -0.0824437 -0.07105406 -0.2559088 0.04637582 0.02812303 0.057833783 -0.092398435 -0.02712093 0.06609725 -0.08853333 -0.039748 -0.08126912 -0.009191969 0.048395447 -0.017001467 0.0912929 -0.19153751 -0.083356194 0.1315533 0.055702988 -0.082564324 -0.043397933 -0.1688707 -0.022160843 -0.029488055 -0.08969681 -0.0109379105 0.13908306 -0.019341215 -0.057266507 -0.028095566 0.07795731 0.060139302 0.04689425 -0.07829783 0.021300262 -0.03439088 0.0023862207 0.034370385 0.017071033 -0.026006263 -0.11177208 -0.04221014 0.0571812 -0.0151227135 0.011940272 0.039268684 -0.018240528 0.19299912 0.07103078 0.15789936 -0.20545787 0.15288372 -0.061869655 0.08299794 0.066651314 0.02061383 0.10640936 0.0731555 -0.042870663 0.046831205 -0.05231166 -0.020510012 -0.03446698 -0.020439629 -0.1446508 0.1315866 -0.037166324 -0.04804963 0.21744888 0.12914823 0.098848574 0.064283274 0.19424532 0.106231675 0.02856272 0.019407637 0.15594779 0.068211034 0.026901752 -0.015844341 0.028736828 -0.05939952
priyanka 0.049043547 0.10363709 -0.014814189 -0.025472017 0.034544714 -0.15788673 0.07021573 0.17174336 -0.06162089 -0.08471938 -0.033186506 -0.124132745 -0.008022803 0.05249848 0.07035493 -0.04402028 0.0027065822 -0.05207263 -0.05021275 -0.18043435 0.031218715 0.012359442 0.04396601 -0.07861432 -0.0188298 0.05384155 -0.070333004 -0.029606758 -0.055895995 0.0030473361 0.051334925 -0.01660307 0.057316378 -0.14049357 -0.054943882 0.10092611 0.04300723 -0.050317507 -0.020569118 -0.11040027 0.00014176247 -0.033005815 -0.067583516 -0.004105838 0.100551754 -0.0052225795 -0.030442327 -0.03077884 0.057725832 0.037413806 0.048666477 -0.07265869 0.019444376 -0.024795955 -0.0062569184 0.03821656 0.017449368 -0.0060014892 -0.07917274 -0.02983531 0.035682928 -0.007495168 0.008650453 0.029712852 -0.008196321 0.1464455 0.06165671 0.107390426 -0.14226264 0.11708144 -0.054081254 0.04454844 0.055506073 0.027404146 0.073995605 0.047592774 -0.044971105 0.03414804 -0.029702976 -0.012527416 -0.035302352 -0.013890845 -0.105214685 0.085152306 -0.021534631 -0.040180385 0.15616514 0.08762443 0.07968141 0.035049275 0.1417975 0.07645986 0.021014526 0.0056821993 0.1049438 0.04635231 0.033750087 -0.007237229 0.010777169 -0.042392705
nick 0.06679381 0.11805357 -0.029720303 -0.03746662 0.038762875 -0.16711287 0.075912125 0.19284527 -0.07528979 -0.08416161 -0.041798603 -0.13596778 0.006814093 0.052761294 0.084756576 -0.06507529 5.5491537e-06 -0.05883853 -0.06276311 -0.21270758 0.02545335 0.014677921 0.03715649 -0.08739562 -0.021403082 0.0539155 -0.06662002 -0.034250744 -0.0686817 -0.0003846961 0.05225528 -0.021534769 0.060038928 -0.157418 -0.07681663 0.1112182 0.04038309 -0.06218224 -0.033789203 -0.1387561 -0.014846361 -0.027882233 -0.06914314 0.0027035333 0.12405312 -0.010305336 -0.040085673 -0.036923334 0.060005438 0.040327728 0.048563167 -0.07487574 0.0150642395 -0.040015068 -0.015656026 0.028253632 0.007485031 -0.018937169 -0.09685394 -0.047174092 0.05469777 -0.016150244 0.02329139 0.041498765 -0.021159675 0.17195298 0.06980704 0.13577507 -0.1791102 0.13267197 -0.05459171 0.06713885 0.06163899 0.02634452 0.08269721 0.07135803 -0.03341936 0.04548921 -0.043290883 -0.00942943 -0.02810236 -0.028700374 -0.1347099 0.10544783 -0.025298761 -0.049797412 0.17498708 0.104896925 0.09724619 0.04606041 0.15691034 0.09630819 0.03139189 0.011720433 0.13239267 0.05634726 0.038937315 -0.0049512917 0.031615593 -0.06110406
deepika 0.05074413 0.11317986 -0.0205825 -0.03484493 0.033205222 -0.16106813 0.074119456 0.17865886 -0.054419313 -0.08926817 -0.023878722 -0.11494035 0.00036338237 0.039617028 0.078988366 -0.05448906 0.004193833 -0.06698373 -0.056836832 -0.18015856 0.030696139 0.016613841 0.046743073 -0.059788052 -0.03699183 0.055140994 -0.06198651 -0.03139579 -0.054146778 -0.0031399576 0.043025214 -0.017173547 0.05403496 -0.1415281 -0.056993876 0.110915594 0.046150338 -0.06376922 -0.040031984 -0.11487118 -0.004709196 -0.02213689 -0.053841785 -0.0063091666 0.11451784 -0.0101600075 -0.035043 -0.032201145 0.0548499 0.035216916 0.04624186 -0.06394844 0.011169063 -0.0395519 -0.011697819 0.0309951 0.011162864 -0.0036817552 -0.07468288 -0.04316762 0.045882367 -0.0060509704 0.020442635 0.034643088 -0.007783077 0.14018336 0.05474909 0.12586631 -0.15697289 0.10452469 -0.04690463 0.050591655 0.05065456 0.032341365 0.07501111 0.051024385 -0.0447611 0.044550903 -0.041604273 -0.0069661452 -0.03193492 -0.011352193 -0.110131025 0.09816519 -0.025730819 -0.040774193 0.17024304 0.10598309 0.078184694 0.032613114 0.13865866 0.07826304 0.019398307 0.011973758 0.12096592 0.045366466 0.035592686 -0.013038965 0.018344987 -0.055101335
ranveer 0.0632539 0.12342872 -0.031473495 -0.040997386 0.037272286 -0.1797808 0.0854198 0.20527183 -0.0752287 -0.08920278 -0.045883097 -0.13619319 -0.01204772 0.05631254 0.07794625 -0.066177525 -0.008708479 -0.06711827 -0.051613804 -0.22525983 0.03545176 0.013046365 0.05079298 -0.073131956 -0.035156265 0.06334077 -0.08031614 -0.036165934 -0.074880235 -0.0034105214 0.056762964 -0.013745153 0.07312027 -0.17488922 -0.06306153 0.114432834 0.040639054 -0.06506659 -0.03796824 -0.14535058 -0.007758792 -0.039207313 -0.08061113 0.0048308787 0.13307318 -0.02239005 -0.0418945 -0.03517327 0.07269047 0.03701656 0.054479465 -0.07132553 0.03460441 -0.039544735 -0.007957458 0.028709888 0.0009847172 -0.024854528 -0.09589127 -0.052319214 0.05852424 -0.019653244 0.017367015 0.042831205 -0.01766282 0.17138582 0.07622376 0.14778292 -0.18771885 0.14372979 -0.0680551 0.070555694 0.05826217 0.029725019 0.09468804 0.07267114 -0.04886987 0.05380753 -0.035641562 -0.020220188 -0.04051615 -0.027947266 -0.1322712 0.10948671 -0.036026873 -0.053548943 0.19832966 0.12125144 0.08449073 0.044426076 0.17601335 0.08955269 0.028801251 0.012944271 0.13473901 0.04541042 0.04050279 -0.0016012059 0.02494182 -0.055173453
wedding 0.055177227 0.11316228 -0.02276608 -0.046405356 0.019374624 -0.17187323 0.08054616 0.1893116 -0.07221841 -0.09529764 -0.04177424 -0.13120201 -0.012609957 0.04063493 0.07336749 -0.067015275 -0.011542015 -0.07515532 -0.055310413 -0.20442474 0.022723936 0.018494565 0.050067358 -0.069436416 -0.035709754 0.053370815 -0.07052753 -0.04842134 -0.058788963 0.0022176064 0.052055918 -0.022833338 0.062191993 -0.16135897 -0.065263815 0.119377464 0.045862693 -0.05733455 -0.029584559 -0.13822943 -0.00057822093 -0.0380452 -0.07282785 -0.006942893 0.11571178 -0.01855329 -0.042131774 -0.023073165 0.060525764 0.039592665 0.04892056 -0.077494696 0.030291514 -0.021286363 -0.015976602 0.034813203 0.0202606 -0.023786161 -0.09608891 -0.04995501 0.057611912 -0.012801835 0.02331722 0.0310446 -0.009001662 0.16033374 0.06091093 0.1297676 -0.17585315 0.115077905 -0.05378711 0.06644955 0.064401515 0.029739605 0.08338238 0.06759949 -0.051776808 0.044205993 -0.038716268 -0.006035339 -0.020378668 -0.027451264 -0.11950354 0.09281468 -0.026226822 -0.050624695 0.16956352 0.12009458 0.08398977 0.050799765 0.16810258 0.09591682 0.0130236 0.01144614 0.13125704 0.05633096 0.02853397 -0.015299918 0.025656015 -0.061888244
the 0.06351579 0.09128554 -0.020235028 -0.030268507 0.02430617 -0.14715314 0.071370035 0.1605865 -0.060894184 -0.079461776 -0.025051484 -0.110866345 -0.004425228 0.05382161 0.060176607 -0.051176917 0.005368742 -0.05420281 -0.04288245 -0.18499693 0.028862134 0.014242921 0.045360316 -0.06553512 -0.022573156 0.052830596 -0.06589421 -0.037796304 -0.05237432 -0.005422845 0.04614914 -0.0029774397 0.05665086 -0.12987624 -0.063775115 0.09746898 0.027570797 -0.06481275 -0.03630394 -0.12590915 -0.0017983761 -0.03145232 -0.049264204 -0.0116721615 0.104719855 -0.0037015278 -0.042929385 -0.03705787 0.047967143 0.03284354 0.039635353 -0.06882839 0.009942318 -0.022118289 -0.013125882 0.01890605 0.0062191193 -0.022097394 -0.08491663 -0.045716766 0.04211902 -0.015278921 0.018313289 0.0357055 -0.014783248 0.14286189 0.046074253 0.10520131 -0.15296547 0.10389086 -0.050406776 0.06028014 0.04596049 0.025451306 0.08052943 0.04492705 -0.03351819 0.04124864 -0.037279308 -0.0021311664 -0.01811854 -0.024238832 -0.114014186 0.09195568 -0.023953784 -0.042396728 0.16113791 0.09058709 0.06721528 0.04114908 0.13481933 0.07662276 0.014446545 0.012885199 0.10446961 0.04562258 0.03480046 -0.011668146 0.01802915 -0.041143946
chopra 0.074418455 0.11037576 -0.013520668 -0.027642416 0.027237209 -0.17329532 0.083480254 0.18638794 -0.07227301 -0.096900836 -0.038066577 -0.133274 0.00183363 0.049591415 0.07695376 -0.055951558 5.149833e-05 -0.068622425 -0.06032938 -0.21663994 0.03290961 0.027152438 0.042284295 -0.08754601 -0.037042744 0.06539853 -0.07903264 -0.032891266 -0.06925523 0.004279588 0.04032345 -0.011106689 0.06597161 -0.16124111 -0.07145668 0.111426376 0.035654843 -0.06674228 -0.042620044 -0.13538522 -0.0005744684 -0.03162476 -0.068643145 -0.00052228424 0.12822369 -0.020385927 -0.049165525 -0.03672757 0.07382687 0.042539783 0.03795453 -0.073823884 0.03176913 -0.039942164 -0.0114077935 0.043756563 0.0004571342 -0.010353783 -0.08929576 -0.036220588 0.05830627 -0.014956328 0.010774679 0.04887916 -0.011986097 0.1682364 0.051454194 0.13976012 -0.17280363 0.12059871 -0.054937564 0.061291974 0.062144343 0.021665959 0.08121309 0.06425006 -0.034296386 0.03653127 -0.0379011 -0.018224102 -0.03639054 -0.020612761 -0.13515238 0.10867893 -0.024781287 -0.045310788 0.18454982 0.12098827 0.096731 0.044107694 0.1639812 0.08607564 0.013836711 0.02286399 0.12186669 0.050680578 0.030926598 -0.0104581695 0.027322203 -0.058085397
sharma 0.05051272 0.11575258 -0.017219095 -0.02495594 0.036537908 -0.15664318 0.082440466 0.17008193 -0.06771712 -0.07861562 -0.030643258 -0.12812066 0.0067023113 0.042925473 0.081072986 -0.052574515 -0.010640079 -0.06573251 -0.056991227 -0.19480209 0.030373186 0.02947825 0.048493005 -0.077744074 -0.022795446 0.05535047 -0.07187772 -0.04531592 -0.056878135 -0.012665538 0.049929723 -0.019140482 0.06896551 -0.13160408 -0.06353522 0.108285 0.03466343 -0.052309327 -0.026711 -0.1367466 -0.010679142 -0.023927951 -0.06263483 -0.0052380767 0.10753003 -0.014738762 -0.038020138 -0.026238887 0.05496389 0.03498865 0.04287998 -0.06595313 0.020958751 -0.033940393 -0.0008860232 0.031097198 0.010263253 -0.011916185 -0.07683774 -0.04702571 0.038995724 -0.015386011 0.023024887 0.035873365 -0.021788165 0.14842132 0.05136505 0.12547529 -0.16684115 0.11870609 -0.062593244 0.058257658 0.05957822 0.030196497 0.07037864 0.051350582 -0.046156492 0.029089224 -0.046246007 -0.011017239 -0.02742286 -0.025453558 -0.11000621 0.09939543 -0.018319359 -0.03723501 0.16635424 0.09590483 0.08009458 0.04726584 0.14401959 0.083981484 0.023692396 0.013755205 0.12293665 0.05614458 0.03286066 0.0023247162 0.028037846 -0.056250673
ginni 0.055937 0.102287285 -0.029915342 -0.026701715 0.028198099 -0.1699651 0.0704185 0.18374221 -0.06554364 -0.08883004 -0.033318207 -0.12874018 -0.0052788206 0.0483071 0.06978474 -0.045845404 -8.849626e-05 -0.07461766 -0.044576336 -0.2032143 0.031051647 0.024864428 0.03438244 -0.07474592 -0.019287964 0.049714766 -0.07847969 -0.027521947 -0.060913496 -0.009918633 0.052805208 -0.00953813 0.06902211 -0.13530613 -0.07352994 0.11098978 0.039885003 -0.05592042 -0.029537743 -0.12601683 -0.0034887325 -0.02196306 -0.06638468 -0.008341402 0.110596545 -0.0110680545 -0.043548476 -0.025071882 0.064882345 0.0473758 0.04617097 -0.05921048 0.0200696 -0.022308536 -0.0015557377 0.025080614 0.0055425675 -0.016034206 -0.07928513 -0.04066644 0.044157095 -0.00326277 0.023731982 0.036412578 -0.017782703 0.14728701 0.051222693 0.11312473 -0.15902174 0.11391496 -0.051918264 0.06338456 0.050922237 0.013983027 0.08181714 0.051562954 -0.037197392 0.034003187 -0.030184347 -0.009066668 -0.024140108 -0.020985385 -0.12110848 0.10823749 -0.023463698 -0.045637947 0.16094343 0.10658587 0.0907446 0.048977498 0.14281233 0.093445554 0.02605366 0.023250146 0.12590644 0.041518487 0.021592129 0.0003309952 0.03245623 -0.047750615
weddings 0.048937093 0.07310049 -0.006550535 -0.034779422 0.012344885 -0.120616116 0.046566896 0.12852488 -0.047084104 -0.0672446 -0.015926385 -0.09026298 0.0065236497 0.028774392 0.05412124 -0.032805547 -0.0009800381 -0.047705635 -0.032512184 -0.14409506 0.01838649 0.010521785 0.035248034 -0.0545703 -0.02540218 0.041479964 -0.048629772 -0.028594077 -0.033517513 0.00020359522 0.027181566 -0.008273655 0.054298166 -0.09267915 -0.03839844 0.07817847 0.028969185 -0.043193813 -0.030036837 -0.090534166 -0.008147831 -0.019286113 -0.05078962 0.004068467 0.068948284 -0.017618347 -0.030692788 -0.022282626 0.032623995 0.028953094 0.024789682 -0.047508862 0.00649591 -0.01851742 0.00025650725 0.022142818 0.001726118 -0.011826806 -0.051289294 -0.023957815 0.023332026 -0.011928235 0.0120760035 0.027652832 -0.018735215 0.109265305 0.030450916 0.076708786 -0.10749862 0.07851184 -0.0333633 0.049153373 0.034045067 0.026356986 0.057371333 0.049199745 -0.021376317 0.01618517 -0.031051692 0.00020702099 -0.013138761 -0.0030884643 -0.07528371 0.07707868 -0.02677489 -0.022861257 0.111263506 0.077073134 0.06294042 0.03558837 0.11338065 0.05983425 0.012828557 0.01667029 0.07471063 0.03486512 0.029578228 -0.010405819 0.019428683 -0.044292443
jonas 0.07471491 0.12066052 -0.02137927 -0.030089073 0.031672224 -0.17653842 0.07596611 0.19278142 -0.070185915 -0.09171162 -0.032174177 -0.12682524 -0.0048509603 0.047646303 0.08129691 -0.06362271 -0.008222623 -0.0741855 -0.057467274 -0.21137531 0.027064273 0.01120645 0.041740634 -0.08552915 -0.038724307 0.04869721 -0.08051374 -0.031911682 -0.05706865 -0.003764558 0.04340273 -0.021566654 0.067127004 -0.15106668 -0.066468425 0.111399256 0.04042142 -0.063487045 -0.042110026 -0.14119717 -0.017365262 -0.03057925 -0.06445018 0.0032621485 0.11492642 -0.016337156 -0.031753328 -0.032438293 0.060268022 0.049321536 0.0485434 -0.07618705 0.02836495 -0.027202072 -0.013319387 0.033344608 0.009672797 -0.008722394 -0.089961566 -0.04520318 0.05131641 -0.011074413 0.015816353 0.036661264 -0.019184401 0.16598059 0.068168186 0.1361294 -0.17690757 0.12691998 -0.059876516 0.069740385 0.05944303 0.028566396 0.08603829 0.06735692 -0.047719963 0.048591837 -0.041543886 -0.014394071 -0.031183513 -0.010491481 -0.13112846 0.100877725 -0.018548919 -0.04305328 0.16966815 0.103017345 0.095567696 0.05142057 0.16331555 0.08478636 0.012312182 0.019801015 0.12814097 0.044087805 0.023976054 -0.008402884 0.017590607 -0.055297755
kapil 0.047619227 0.08374406 -0.008660285 -0.037926015 0.029712426 -0.12697385 0.05920074 0.15391673 -0.040839475 -0.07458503 -0.03479661 -0.109152675 -0.010912677 0.035058673 0.053884093 -0.052627962 -0.0021718058 -0.04944254 -0.03475499 -0.16250056 0.020091651 0.018219503 0.03296525 -0.050403412 -0.021924771 0.05192683 -0.06670815 -0.021328049 -0.050272726 0.0051594023 0.028897975 -0.009135799 0.0532089 -0.11743735 -0.057981446 0.076592326 0.022956306 -0.057425555 -0.02343203 -0.105160065 -0.008410852 -0.015823573 -0.053960852 -0.0044421256 0.08139545 -0.020805418 -0.023467992 -0.031507287 0.04382661 0.037325755 0.042477924 -0.062350623 0.019144822 -0.030723026 -0.0027557435 0.02307194 0.0034920096 -0.008009936 -0.059711497 -0.025855536 0.02871146 -0.0146193905 0.019736808 0.033300627 -0.014047367 0.12419281 0.05551708 0.09827623 -0.13999128 0.097734556 -0.038411517 0.053433675 0.048957102 0.013218245 0.06439461 0.047522455 -0.028032467 0.023085738 -0.03809744 -0.0077238395 -0.03142262 -0.009248667 -0.09748994 0.092205726 -0.02562336 -0.033042934 0.14554371 0.081147164 0.0633681 0.036649812 0.12673691 0.06642711 0.024218276 0.00481184 0.0974423 0.039858088 0.034439344 0.0018957545 0.025167134 -0.03355533
chatrath 0.049272332 0.115358844 -0.029108224 -0.03648793 0.024574647 -0.1625761 0.06405308 0.16432418 -0.06514896 -0.08315036 -0.038773153 -0.11563741 -0.013175179 0.040141463 0.08027672 -0.045586355 0.0044133877 -0.058758963 -0.04821546 -0.19577903 0.035193875 0.022600934 0.046087768 -0.06370033 -0.018658426 0.06133347 -0.07884298 -0.04214351 -0.055711754 0.0019663535 0.050643355 -0.0076307696 0.06951016 -0.1448555 -0.05616808 0.09776419 0.027593857 -0.049398046 -0.028649714 -0.12868918 -0.010818155 -0.031517345 -0.055726532 0.0007110796 0.105193876 -0.020264082 -0.042066585 -0.030446429 0.06517311 0.03519323 0.042292092 -0.06433225 0.014420829 -0.02710984 -0.006849942 0.034599006 0.013898514 -0.013502147 -0.084584765 -0.03075666 0.05039913 -0.0037238668 0.018184513 0.045760375 -0.0039872155 0.14561318 0.06307251 0.122874275 -0.14935726 0.11248676 -0.054703746 0.05140441 0.044415686 0.025548557 0.086128734 0.06535315 -0.040987242 0.043224465 -0.031572208 -0.014260898 -0.024713412 -0.023464793 -0.10672844 0.102616556 -0.020184828 -0.034163017 0.17220207 0.108648874 0.08056951 0.035322193 0.15550487 0.089042045 0.022210391 0.013228865 0.106395096 0.042282168 0.038753394 -0.0084606595 0.015551017 -0.03955523
anand 0.04330765 0.071698174 -0.011343289 -0.028454566 0.02643293 -0.097039655 0.048943244 0.10666199 -0.025933174 -0.05813463 -0.010449304 -0.08108091 -0.008702259 0.018119717 0.036155216 -0.023541497 0.007204399 -0.039478604 -0.025377395 -0.115504675 0.025957428 0.017111693 0.022601524 -0.045114953 -0.023631329 0.03554241 -0.03921743 -0.023375457 -0.02516166 -0.0067562526 0.016727097 -0.010671341 0.036380805 -0.0895888 -0.041661374 0.05151663 0.031638265 -0.025802696 -0.018808683 -0.0664337 0.003396569 -0.017110623 -0.028894095 0.0023711354 0.068084955 -0.0002276247 -0.027976708 -0.020197326 0.035846345 0.027202815 0.028403003 -0.033474624 0.017242847 -0.02653236 -0.006120399 0.011625417 0.01552971 -0.0022403437 -0.04786068 -0.018150523 0.018993348 -0.013005951 0.011562799 0.028638335 -0.0032299394 0.093318775 0.030667674 0.066459216 -0.091235265 0.06408036 -0.036710817 0.024368005 0.03842583 0.012245813 0.04366652 0.025332035 -0.012793576 0.023420423 -0.019848242 -0.0029411686 -0.02426379 -0.008507993 -0.06540705 0.04809549 -0.009112432 -0.02006087 0.10349095 0.06506881 0.045015115 0.017129581 0.09402971 0.049881697 0.017744532 0.0150526725 0.06825343 0.02058284 0.017415663 0.005108051 0.0064519397 -0.019622197
2018 0.0427164 0.09201941 -0.0151499035 -0.019663524 0.019066472 -0.13551624 0.054575987 0.14683087 -0.055280015 -0.05937967 -0.03278746 -0.10971233 -0.007946436 0.04448243 0.051900346 -0.04945596 -0.010968627 -0.045967054 -0.038768068 -0.15455541 0.020650093 0.022304405 0.025488425 -0.061001416 -0.028748093 0.042372506 -0.05957038 -0.021592472 -0.047005776 -0.012108851 0.030788843 -0.018344669 0.054540712 -0.107482366 -0.057360463 0.094006315 0.03987455 -0.055459786 -0.035041127 -0.09529769 0.0018048242 -0.027998483 -0.0574533 0.0053430935 0.093669206 -0.0025098932 -0.03998337 -0.034802213 0.050491806 0.022126868 0.030609744 -0.058342874 0.026845591 -0.016139 -0.008183455 0.032493055 0.01560132 -0.012885865 -0.058744706 -0.024946902 0.040223558 -0.012756183 0.0065261293 0.027417745 -0.0018270602 0.11606226 0.043354742 0.1083683 -0.12638749 0.101586975 -0.052123502 0.045356266 0.049769588 0.013956594 0.071861185 0.05602561 -0.033282235 0.029247578 -0.030543508 -0.013645898 -0.03108186 -0.016868914 -0.09929224 0.08470036 -0.027314708 -0.026845006 0.12901962 0.07665922 0.07624178 0.04451478 0.11898573 0.07134686 0.011482536 0.003364299 0.08774338 0.045053624 0.031217024 0.0055038584 0.02514382 -0.03481591
isha 0.035000756 0.04902954 -0.006876065 -0.01925263 0.02327827 -0.08627934 0.037338555 0.10442271 -0.032080546 -0.04613781 -0.023380635 -0.07638084 -0.009049437 0.03464323 0.030211112 -0.020074112 -0.011119392 -0.034398325 -0.028894968 -0.11450411 0.025670901 0.017696785 0.02374881 -0.034305245 -0.014837542 0.03882641 -0.031639352 -0.029561155 -0.035876602 -0.0040114466 0.027119827 -0.0120766815 0.03558474 -0.08593516 -0.031652037 0.061878983 0.025846364 -0.035389703 -0.025901593 -0.079087414 -0.0050820145 -0.022425117 -0.040585022 0.0049918136 0.06673957 -0.005155441 -0.029891698 -0.023043862 0.041217737 0.025594322 0.018112212 -0.044120647 0.012203774 -0.013269599 -0.0004063417 0.021185685 -0.00034218183 -0.016840132 -0.052118886 -0.020972567 0.030029781 -0.0017201024 0.009678939 0.025993604 -0.007099504 0.0864865 0.021320203 0.07370308 -0.07996332 0.06886057 -0.021849122 0.03925544 0.0305991 0.010808191 0.043961316 0.021958208 -0.01259478 0.01462967 -0.012084226 -0.00956145 -0.015291387 -0.018847805 -0.073896125 0.045995645 -0.021088267 -0.020663543 0.083492406 0.05122134 0.039620485 0.018353047 0.08938755 0.050170362 0.02048388 0.015881604 0.05676793 0.03291197 0.007205974 -0.0053628557 0.0038392707 -0.022918722
ambani 0.039198868 0.07264697 -0.009903385 -0.028015353 0.026630891 -0.10502839 0.0542864 0.11141584 -0.04189425 -0.056507744 -0.025735829 -0.082217164 0.0076508136 0.026230892 0.05193014 -0.042477895 -0.00042013824 -0.039226618 -0.022928128 -0.127283 0.026533619 0.0068776207 0.01709058 -0.04951274 -0.020414375 0.029324621 -0.04627758 -0.029626558 -0.034136593 -0.0034458805 0.025154414 -0.0047388235 0.030659538 -0.09099721 -0.033165142 0.07287568 0.013646654 -0.028451072 -0.01414771 -0.08216994 0.0037863364 -0.026444899 -0.030372614 0.0038385685 0.06832701 -0.013459121 -0.028897159 -0.022590293 0.038201287 0.025320953 0.03424792 -0.030639814 0.021901546 -0.023460072 0.006738945 0.01916464 0.010958305 -0.0055088038 -0.05099968 -0.020002814 0.02294747 -0.012796101 0.0010123975 0.024786018 -0.0010413938 0.09287949 0.03556571 0.07739863 -0.08823757 0.063812576 -0.030390685 0.026488638 0.037105314 0.024218345 0.05638043 0.04141768 -0.015541416 0.029969765 -0.015865095 0.0029418645 -0.022781657 -0.0014765027 -0.06697448 0.057853583 -0.0065603293 -0.018563688 0.11133096 0.06599687 0.06052949 0.027023861 0.10145558 0.054091707 0.01994879 0.005903887 0.07710615 0.036166478 0.01594245 -0.005315338 0.016638571 -0.037823286
piramal 0.04774307 0.056691855 -0.019799784 -0.018275931 0.025546346 -0.104688965 0.048510697 0.11863637 -0.04477473 -0.05833513 -0.026088249 -0.08059125 -3.3683964e-06 0.038742084 0.050708 -0.032466587 0.000877851 -0.030390572 -0.021109136 -0.11354865 0.02512799 0.0047612903 0.019530516 -0.04985539 -0.010996015 0.031003619 -0.052895557 -0.014657821 -0.026706997 -0.006266493 0.03641861 -0.009736127 0.03463946 -0.08869757 -0.038327444 0.061116263 0.02669584 -0.030516492 -0.012695819 -0.087562986 -0.0071419817 -0.023048857 -0.030161265 0.0050249263 0.063178144 -0.0058843573 -0.03104326 -0.019127507 0.046699084 0.021413578 0.021480272 -0.0487316 0.010320597 -0.019797225 0.0006990579 0.029513936 0.0030721638 -0.005833294 -0.041052368 -0.022257347 0.029575666 0.0027219262 0.018611312 0.03144143 -0.013868768 0.10293858 0.04029678 0.08365403 -0.099423476 0.07527892 -0.02597952 0.030564716 0.040353768 0.01655513 0.05858895 0.031761046 -0.02710086 0.030191524 -0.031924378 -0.0135040125 -0.024888948 -0.011830976 -0.07472987 0.06738555 -0.0054781935 -0.024552984 0.10358268 0.06524408 0.049000993 0.017738914 0.10041196 0.046641093 0.017909685 0.01875547 0.07385881 0.031847432 0.022437233 -0.005796505 0.016950026 -0.030132653
saw 0.05982175 0.09999991 -0.016149024 -0.024494046 0.016454155 -0.13697547 0.074416466 0.15142101 -0.053059205 -0.07973097 -0.02959712 -0.106162995 0.004772666 0.042311884 0.06542157 -0.046321314 0.0049305414 -0.062455777 -0.050216757 -0.17472388 0.02397176 0.022643061 0.026622 -0.06663037 -0.032526612 0.053729326 -0.065050766 -0.041231997 -0.046658054 0.005984783 0.03657808 -0.017903045 0.059860636 -0.1276407 -0.0665972 0.101891674 0.025375942 -0.05738991 -0.031556495 -0.119973406 -0.005531231 -0.0144239245 -0.05094458 0.004985234 0.09701299 -0.011856753 -0.037108906 -0.03638167 0.056264356 0.03660587 0.028396597 -0.0632548 0.008815928 -0.032067735 -0.0011847406 0.036894143 0.012135757 -0.009885961 -0.06570731 -0.037184212 0.03941933 -0.01942515 0.011113549 0.03064 -0.010380084 0.14031836 0.043269385 0.10232362 -0.147856 0.10024927 -0.05134639 0.053539645 0.051271796 0.015695889 0.06581945 0.052742664 -0.030086178 0.039058235 -0.03687243 -0.012221602 -0.029872239 -0.017033808 -0.10263261 0.08900395 -0.014873502 -0.037563913 0.14753172 0.08655821 0.07089339 0.031873886 0.13263287 0.074312195 0.009564554 0.021809584 0.09256769 0.0320822 0.018023027 0.0025260453 0.024865732 -0.03606998
from 0.04497003 0.07446664 -0.017413205 -0.013843026 0.02311365 -0.10649864 0.049412284 0.12317059 -0.035747807 -0.058527425 -0.02033294 -0.08520423 0.00326576 0.036365163 0.052516863 -0.042115107 -0.007729936 -0.038857765 -0.040173534 -0.13248482 0.02055817 0.016747724 0.017603604 -0.040030655 -0.020837571 0.03158905 -0.044306405 -0.027005741 -0.047122575 -0.007089197 0.029497601 -0.019189382 0.04367948 -0.09627026 -0.046129495 0.07481152 0.028954634 -0.030367242 -0.020376328 -0.08562698 -0.0028195772 -0.021357805 -0.051011976 0.006131879 0.07406779 -0.018602254 -0.033928875 -0.025230868 0.045018733 0.031492364 0.0359185 -0.052381404 0.014957635 -0.024284873 -0.008631018 0.029075282 0.01078152 -0.012282464 -0.0646108 -0.032430187 0.03117933 4.2393902e-05 0.015261607 0.017418858 -0.01881219 0.11057239 0.036340415 0.079651006 -0.1033879 0.07468835 -0.031851735 0.038027823 0.030316034 0.01551903 0.06125541 0.04842611 -0.02470184 0.031798366 -0.030480294 -0.006887616 -0.02489137 -0.011545648 -0.0827248 0.06374059 -0.024137298 -0.01718385 0.11669416 0.068768956 0.052272294 0.03653733 0.09637292 0.05955621 0.015950631 0.019154523 0.085716814 0.029240204 0.02355052 -0.0049941377 0.004838896 -0.03711333
new 0.06188675 0.1103814 -0.009921655 -0.023581544 0.018771254 -0.15187755 0.06556792 0.17133081 -0.06015174 -0.07475374 -0.029485561 -0.115272574 0.0063133 0.04730428 0.06355417 -0.060712207 0.0018437777 -0.06939961 -0.052122947 -0.18399496 0.026755773 0.012523494 0.035066426 -0.070288785 -0.024799643 0.060461864 -0.07401271 -0.032992024 -0.048599698 -0.001303168 0.047671556 -0.017638229 0.067903325 -0.14909244 -0.05831477 0.09395301 0.033975985 -0.06942974 -0.033829127 -0.13146582 -0.012957991 -0.025790513 -0.05876193 -0.0056627863 0.101156734 -0.019698765 -0.03656034 -0.034280345 0.048550986 0.036544666 0.049375452 -0.058979608 0.010564305 -0.025360934 -0.012298962 0.02132681 0.008344839 -0.014221008 -0.0896742 -0.04717014 0.043639973 -0.0042292583 0.004396901 0.043907788 -0.012315519 0.14874546 0.0664211 0.123159945 -0.16068572 0.11980929 -0.04911131 0.06300913 0.051924933 0.017373795 0.07900914 0.051780753 -0.038305238 0.04304686 -0.03162971 0.00032111266 -0.03432649 -0.0246985 -0.10879059 0.09671626 -0.030211287 -0.03883774 0.16619396 0.09928659 0.074546285 0.04840218 0.15730324 0.07351865 0.01928535 0.011811906 0.10652689 0.045088004 0.024108347 0.0042925514 0.014445474 -0.046126172
also 0.07807251 0.13913815 -0.02573673 -0.031636093 0.036268655 -0.21202877 0.09121306 0.2279816 -0.08380691 -0.11603828 -0.048629906 -0.16396694 0.0020628734 0.06579122 0.100093625 -0.063088104 -0.012482669 -0.08085592 -0.054718364 -0.24392544 0.040970504 0.029257972 0.03785879 -0.08386332 -0.026611313 0.078256704 -0.09700515 -0.040865574 -0.067562565 -0.0061051184 0.047539957 -0.011186491 0.07193034 -0.19035013 -0.07764762 0.14325234 0.057129182 -0.08458974 -0.0499732 -0.15407415 -0.0048365286 -0.039391782 -0.08963472 -0.009751245 0.13993813 -0.020475423 -0.047166564 -0.03939638 0.07117473 0.04339148 0.066201866 -0.0896425 0.01761241 -0.028811136 -0.0051647113 0.049419515 0.006117238 -0.02486607 -0.10611495 -0.05439946 0.05043251 -0.015144536 0.019567832 0.052873414 -0.009290885 0.19547024 0.069640964 0.15410021 -0.20863985 0.15688948 -0.07501812 0.076444216 0.065723605 0.022540743 0.0957438 0.08089031 -0.062871784 0.048570883 -0.04423389 -0.0044973856 -0.04158584 -0.021161051 -0.13938993 0.118473396 -0.034154538 -0.046445344 0.21830897 0.13524607 0.11278726 0.05601043 0.19242278 0.10505683 0.018090403 0.023477722 0.14905049 0.05291704 0.039767135 -0.0067403675 0.028162692 -0.055504296
man 0.027243087 0.046270385 -0.0027683608 -0.025628217 0.0041340785 -0.083845 0.026739731 0.08893551 -0.029669642 -0.045959346 -0.023736482 -0.062306546 -0.0036600744 0.028526664 0.044559218 -0.022170072 0.00672216 -0.043263957 -0.014280992 -0.099739924 0.024336996 0.011256703 0.024750045 -0.046756525 -0.02236772 0.036385156 -0.038066193 -0.0150763085 -0.022496125 -0.0024935955 0.03195933 -0.0075052385 0.022412611 -0.08065969 -0.032838143 0.04383992 0.026441779 -0.026436258 -0.02585568 -0.055920485 0.003343937 -0.008676488 -0.024355343 -0.012294503 0.055626016 -0.017079255 -0.023453498 -0.0139720915 0.027711894 0.021313645 0.025248531 -0.030101186 0.01563463 -0.0054820655 -0.0083420025 0.023066197 0.01166787 0.0020223819 -0.038563367 -0.02357049 0.019286748 -0.006798028 0.004885559 0.029245112 -0.0051618684 0.079044215 0.031120943 0.051035598 -0.07305024 0.06794378 -0.027934542 0.031855207 0.020682948 0.0057388437 0.049475472 0.02452441 -0.013593907 0.020519149 -0.020922296 -0.0014856426 -0.016751412 -0.01163946 -0.057683922 0.05371268 -0.01304024 -0.018764384 0.07538554 0.06271583 0.031595033 0.030818515 0.08024185 0.034645725 0.0042372784 -0.0010819361 0.052797753 0.033023782 0.023365479 -0.0017902283 0.011619724 -0.017040262
singh 0.044568907 0.08543283 -0.013902537 -0.033719793 0.014563573 -0.13907464 0.06914148 0.1476472 -0.054846823 -0.07591863 -0.026412902 -0.096812494 -0.0042442353 0.03908634 0.053434357 -0.03855368 -0.0014911287 -0.041893348 -0.051056206 -0.16100049 0.015258391 0.015587846 0.022974176 -0.05296039 -0.02919391 0.0373609 -0.052100327 -0.037640445 -0.044939853 -0.010599927 0.045694 -0.002426465 0.052486416 -0.10966477 -0.046106264 0.078556515 0.040750135 -0.057414528 -0.01757457 -0.10045981 -0.009392532 -0.02633547 -0.040478755 -0.00773599 0.096999735 -0.016634263 -0.024018895 -0.025795154 0.056956187 0.028094623 0.04079415 -0.045324754 0.019880727 -0.023726784 0.00049021957 0.03411442 0.016161574 -0.0015896618 -0.059909455 -0.02320879 0.04628271 -0.009281792 0.010298986 0.03200993 -0.009225211 0.12157003 0.037094176 0.08779271 -0.13021626 0.10318437 -0.0477515 0.038163148 0.048441034 0.019324567 0.06557423 0.049746044 -0.028501911 0.036977343 -0.028530242 -0.0070752404 -0.013904513 -0.011924029 -0.09998244 0.08643112 -0.015024167 -0.028725924 0.1311589 0.086617574 0.0732624 0.04194341 0.12226851 0.058198858 0.017192349 0.012225904 0.09623485 0.027682893 0.034161795 -0.0112789655 0.02368251 -0.049912643
padukone 0.06000095 0.09573253 -0.01647584 -0.031355206 0.024037253 -0.13100742 0.054361757 0.15029973 -0.047914155 -0.06482693 -0.035652816 -0.0926262 -0.0024640895 0.03794076 0.05062079 -0.040654555 0.003517701 -0.04476146 -0.047915936 -0.16552535 0.019400233 0.01586215 0.023284424 -0.06675162 -0.025066292 0.04510113 -0.06777155 -0.033950474 -0.046376634 0.0034375284 0.03757464 -0.012268865 0.043952227 -0.12431737 -0.051755957 0.09329574 0.03714433 -0.04956512 -0.025069201 -0.11384151 -0.008411948 -0.028063111 -0.044699755 -0.0045304517 0.08525917 -0.01999026 -0.033922285 -0.03244724 0.04776355 0.027667409 0.03333674 -0.057996072 0.009941581 -0.02671096 -0.0031511004 0.022393625 3.3209475e-05 -0.013855242 -0.0770765 -0.03258032 0.04386814 -0.0122271115 0.014850634 0.03612998 -0.001252301 0.1284829 0.05573866 0.08952556 -0.13814032 0.088891774 -0.051718198 0.038032115 0.036554296 0.0153131075 0.06606367 0.044020575 -0.04131121 0.0367287 -0.029043538 -0.0031187134 -0.016066018 -0.007689213 -0.09746821 0.08413419 -0.025293183 -0.029881284 0.14057732 0.09483174 0.0650108 0.03862674 0.117736116 0.065410666 0.025832815 0.007831111 0.09249816 0.028729394 0.015547021 0.0048802127 0.012089848 -0.03694155
virat 0.053764075 0.10213946 -0.0274902 -0.025908357 0.03465263 -0.155236 0.08147877 0.17154135 -0.069646426 -0.07332419 -0.03830416 -0.11163239 0.0028428778 0.045778785 0.061472654 -0.053811483 0.00045717537 -0.06909691 -0.048267666 -0.19601093 0.037579313 0.015627092 0.04806241 -0.07638301 -0.035898913 0.045708157 -0.071012326 -0.031143717 -0.057323907 0.0053778156 0.04634183 -0.008923931 0.06644697 -0.13279125 -0.06443314 0.11147008 0.02645127 -0.0564663 -0.032227006 -0.12683335 -0.0013194323 -0.02968052 -0.065115266 -0.0047748275 0.107093506 -0.017558198 -0.029934188 -0.03744502 0.06579475 0.03827495 0.04473117 -0.060607605 0.019045552 -0.027129887 -0.008901173 0.037024003 0.007748513 -0.017317941 -0.09139807 -0.052239686 0.046249446 -0.018631987 0.010121341 0.03128448 -0.020754874 0.14932592 0.06440018 0.11519941 -0.1644687 0.11933268 -0.05464455 0.05188277 0.050758135 0.022111619 0.074277475 0.049403306 -0.032782156 0.04138113 -0.04126885 0.00018614509 -0.025371112 -0.010066545 -0.11837473 0.103955 -0.025471801 -0.045086503 0.15886158 0.11290277 0.08082923 0.044325005 0.15629472 0.0748204 0.017864967 0.005997326 0.10624047 0.037413526 0.034088574 -0.00199284 0.027049348 -0.048609167
many 0.039799746 0.07166857 -0.015086502 -0.017109102 0.02698258 -0.09818833 0.051742174 0.10162623 -0.031521667 -0.046757568 -0.016044442 -0.08568113 -0.0021413956 0.03206526 0.038001433 -0.039609037 0.0043159206 -0.045336146 -0.036067307 -0.1100262 0.011304714 0.020579165 0.024196532 -0.03958957 -0.02013482 0.027298246 -0.05234841 -0.022790063 -0.040409178 -0.0054985103 0.03509267 -0.016509444 0.032031186 -0.092870995 -0.045363285 0.055399008 0.022611983 -0.026639845 -0.011570075 -0.08366872 -0.0132621955 -0.01914376 -0.047218043 -0.0067210663 0.06131438 -0.0050648265 -0.032060202 -0.018112374 0.03904133 0.0293381 0.024183044 -0.051148303 0.01751233 -0.024785496 0.0016226366 0.02154056 0.014851736 -0.006396573 -0.052437544 -0.017429564 0.021252392 -0.015550293 0.012855551 0.02030839 -0.012152549 0.09006545 0.024753248 0.07437068 -0.09841806 0.06839744 -0.030266546 0.039557718 0.039562088 0.0060634655 0.043600995 0.026227081 -0.033051364 0.019800738 -0.02444627 -0.014383641 -0.022745388 -0.013072217 -0.06561888 0.062103987 -0.006969411 -0.032543283 0.09687016 0.062201694 0.059384797 0.027162476 0.09329916 0.05208816 0.015903046 0.0001430126 0.07391089 0.034083117 0.024206083 0.0013491842 0.0050680423 -0.034690227
grand 0.043712433 0.061278217 -0.021594284 -0.014335506 0.011445961 -0.0855025 0.048352122 0.096398674 -0.033013176 -0.04270983 -0.023504661 -0.07235213 0.007869043 0.03615834 0.031737365 -0.022888752 0.007859417 -0.03886852 -0.026542021 -0.114153296 0.026129734 0.011301479 0.028017154 -0.032063883 -0.011889149 0.023326522 -0.04261947 -0.019433027 -0.031026978 0.0009918062 0.03519826 -0.0038154013 0.046511218 -0.09051308 -0.042502493 0.06235881 0.025415549 -0.035007555 -0.025496498 -0.07682138 -0.013004246 -0.00623013 -0.03179889 -0.009593332 0.06656382 -0.0032749013 -0.02859553 -0.024662362 0.036017008 0.031333983 0.014694018 -0.038806573 0.0046916553 -0.018715866 0.00020194479 0.01368186 0.0025674298 -0.0062344763 -0.053657677 -0.014929628 0.030895254 -0.015358235 0.006310715 0.024766551 -0.015991274 0.07930127 0.024281012 0.06336455 -0.08231529 0.07421899 -0.028652549 0.023910401 0.0369391 0.017817425 0.045531034 0.024090506 -0.024078509 0.022091195 -0.029849764 -0.00312696 -0.015581345 -0.017655404 -0.07615155 0.063343644 -0.023029128 -0.028066942 0.10058623 0.058238283 0.04447693 0.01906196 0.08486815 0.053127397 0.005848956 0.0035392717 0.06107379 0.021608584 0.009782014 -0.012705717 0.020601658 -0.020442523
but 0.019539187 0.03138588 -0.01006991 -0.017868089 0.019072516 -0.06154995 0.021914577 0.06632168 -0.035128236 -0.032589134 -0.017299792 -0.051245224 0.0024462931 0.027060568 0.032804385 -0.029050853 0.005496193 -0.036972847 -0.025729042 -0.08461967 0.0096630575 0.00778151 0.012947968 -0.026784537 -0.0013117259 0.028942933 -0.029394489 -0.0052545904 -0.020922482 -0.003017947 0.010892427 0.00066129677 0.01615038 -0.06035021 -0.017154662 0.039064128 0.016455855 -0.031252936 -0.008249412 -0.0430741 -0.013605641 -0.015366121 -0.016563648 0.0014004785 0.04418909 -0.0058171614 -0.025065947 -0.0016359515 0.020397136 0.010475621 0.020043377 -0.024264649 0.0024333058 -0.0039003184 -0.0050629335 0.005280622 0.011688565 -0.0001626821 -0.025071543 -0.015028336 0.018966407 -0.013018826 0.009702472 0.024822861 -0.0054525947 0.05765761 0.018539306 0.04672966 -0.07121906 0.05274404 -0.019636769 0.03270448 0.01507054 0.0040714317 0.026223289 0.015160244 -0.014191044 0.020758737 -0.013423562 -0.00021652765 -0.019710025 -0.009507261 -0.054565478 0.04126946 -0.012170028 -0.0064956 0.061937656 0.04844468 0.035835262 0.020183204 0.059619166 0.04105496 0.010054833 0.013254235 0.04941604 0.02533566 0.01614186 -0.010503591 0.0027565137 -0.019503532
nothing 0.027042354 0.04784177 -0.0083238995 -0.008273618 0.006693146 -0.07163406 0.038290955 0.08011782 -0.023831539 -0.03443517 -0.01593708 -0.062313225 0.0002903762 0.0127124265 0.029169418 -0.034477785 -0.0016619063 -0.038487494 -0.013537046 -0.09002105 0.023517793 -0.0010309457 0.014608391 -0.03016925 -0.014550173 0.026273578 -0.03506591 -0.016797243 -0.03137486 -0.010999229 0.026009537 -0.005966302 0.034280982 -0.07295979 -0.023641687 0.036145214 0.024090651 -0.02045777 -0.020913009 -0.047864325 -0.010719503 -0.022004843 -0.026221206 0.0012652803 0.040634766 -0.015913593 -0.007346081 -0.011091719 0.025802536 0.019981313 0.015758572 -0.026729278 0.011080548 -0.0011376225 -0.0082463175 0.015425765 0.01105783 -0.013961582 -0.04712278 -0.009282529 0.027515125 -0.0099074375 0.011687117 0.01803999 -0.010501483 0.06512084 0.020085545 0.05859356 -0.06887819 0.044092476 -0.023577513 0.023771366 0.03049793 0.008416198 0.043811984 0.027097108 -0.022697922 0.026119187 -0.013479959 -0.008205442 -0.016984407 -0.01233791 -0.05748561 0.046423823 -0.019795148 -0.02332549 0.07623114 0.046936624 0.04163941 0.01738881 0.06670635 0.039067872 0.014313624 0.007026054 0.06103039 0.025717158 0.0053520957 -0.004683174 0.0011192892 -0.028866284
beats 0.029164739 0.04394549 -0.0014684562 -0.016132832 0.011861444 -0.08979863 0.028067218 0.08129842 -0.023802234 -0.047715656 -0.013019139 -0.067779236 0.0067272144 0.028969862 0.038485684 -0.032917153 -0.00042214463 -0.038396835 -0.016870482 -0.09531196 0.01672092 0.013086937 0.025600046 -0.04419312 -0.004482044 0.030763322 -0.04289112 -0.010147437 -0.030870473 0.007068846 0.021590304 -0.00047527684 0.03558884 -0.08097343 -0.03586957 0.06356219 0.020652657 -0.037174962 -0.01653905 -0.06828789 -0.004057971 -0.02369768 -0.024487307 -0.0010202202 0.06585378 -0.0032842031 -0.024359426 -0.011568405 0.028810449 0.009952236 0.030921552 -0.0230871 0.020648124 -0.016832553 -0.0118494835 0.020437518 -0.0025346987 0.00033881527 -0.041709617 -0.015576772 0.03021043 -0.0060072322 0.004459309 0.021390405 0.0038165043 0.07071209 0.02813403 0.05916525 -0.077879414 0.06803486 -0.031757735 0.034283973 0.023152076 0.014870556 0.05075832 0.03328426 -0.026609754 0.017755203 -0.010840968 0.0051276484 -0.007551619 -0.014392827 -0.06273534 0.043771833 -0.016708283 -0.016697083 0.07906001 0.04756546 0.050224416 0.03407034 0.086359486 0.04413218 0.0010873178 -0.001403989 0.061327484 0.016207451 0.0070914864 -0.0017316196 0.007897331 -0.03622514
award 0.035825435 0.040872276 -0.017390275 -0.018881353 0.014019506 -0.07939743 0.029233465 0.09130003 -0.021721292 -0.049152773 -0.00630936 -0.051296 -0.010635489 0.021665819 0.038768295 -0.020003654 -0.005199479 -0.04045647 -0.018239172 -0.10243487 0.009010353 0.0073786294 0.02588964 -0.040905856 -0.0076145693 0.026282268 -0.03129163 -0.010988163 -0.025926324 0.0064851576 0.021331785 -0.015251156 0.039624922 -0.07599205 -0.02512773 0.046332236 0.010521168 -0.03513892 -0.010951177 -0.06225427 -0.0035915177 -0.023698412 -0.035253983 -0.008215424 0.062131643 -0.016291933 -0.013326309 -0.014578837 0.02772599 0.027698794 0.017319936 -0.03798679 0.010863804 -0.003930376 0.006007193 0.010891355 0.0081197955 -0.00280128 -0.0470845 -0.012784008 0.015853303 -0.0040556896 0.010809187 0.023295278 -0.010554123 0.07514458 0.035023496 0.06609989 -0.0868026 0.06283408 -0.020986855 0.02710673 0.035256058 0.0063518435 0.03737909 0.020509075 -0.024115179 0.019681707 -0.021165172 -0.010045556 -0.0056515895 -0.015989486 -0.06343452 0.05449889 -0.0015032267 -0.014801173 0.07945214 0.051504068 0.03781132 0.029645883 0.0664343 0.040568165 0.013740975 0.003832508 0.056853846 0.027491419 0.023397466 -0.0012445499 0.019996108 -0.031019742
media 0.029382745 0.038421474 -0.012738342 -0.013456625 0.0056654136 -0.07243479 0.031653877 0.08061667 -0.032571554 -0.044857845 -0.017377652 -0.042389262 -0.012510687 0.029888121 0.029331472 -0.021154253 -0.0031443392 -0.03449832 -0.016091382 -0.072858475 0.004965032 0.0061738426 0.018630443 -0.025816498 -0.0034414046 0.019359488 -0.022045648 -0.020634662 -0.025348607 0.0083312765 0.02358149 -0.014216694 0.02402224 -0.06987285 -0.027132198 0.048906088 0.0076546376 -0.019312715 -0.0073462515 -0.056155212 -0.014222534 -0.015119324 -0.028137045 0.0019131333 0.05491943 -0.0044156937 -0.017782396 -0.008731203 0.015872221 0.014089503 0.01678686 -0.016684715 0.0025284986 -0.01707434 -0.00047374412 0.015059801 -0.0026760255 -0.012559398 -0.036358934 -0.020048823 0.010093761 -0.009229519 0.0021780836 0.02269084 -0.0037941656 0.06308398 0.023493972 0.04527065 -0.062568985 0.049513377 -0.015842967 0.023524214 0.0130081 0.010238714 0.043957423 0.017690923 -0.023080079 0.013641103 -0.006369461 -0.0043975348 -0.0006565075 -0.01747923 -0.03913904 0.029733887 -0.00038493297 -0.0143316155 0.070285924 0.037408374 0.041768733 0.025868274 0.056367703 0.024330884 0.014802183 -0.0005630305 0.03806805 0.02329026 0.0065704156 -0.010309016 0.018626075 -0.02333234
shared 0.032134205 0.053492952 -0.016348613 -0.02229339 0.009997972 -0.093753405 0.0320132 0.10670537 -0.028262705 -0.049677018 -0.016711513 -0.075561665 0.0063993703 0.035709023 0.04029709 -0.03698289 -0.005667574 -0.030441087 -0.029868366 -0.10215372 0.02646361 0.013630977 0.015195365 -0.034814604 -0.01675936 0.023585182 -0.030993953 -0.029666629 -0.03292223 -0.003301034 0.014939867 -0.007974627 0.039018624 -0.08410557 -0.041464064 0.064012535 0.018136278 -0.04198197 -0.017596405 -0.06975336 0.0024195318 -0.0144566465 -0.027217275 -0.012168808 0.06547296 -0.001092795 -0.020208606 -0.019414902 0.033486478 0.020324146 0.01585708 -0.0437233 0.012357715 -0.017576372 0.0063899127 0.016522462 0.01110093 -0.005279973 -0.037852835 -0.03161262 0.02780521 -0.0073764944 0.009491019 0.019693658 -0.0145115955 0.09113129 0.0285051 0.06886433 -0.09433434 0.06893296 -0.019569932 0.030921988 0.03547323 0.011866211 0.051773254 0.041215096 -0.023071535 0.019622559 -0.030128201 0.0049494053 -0.016784666 -0.008721257 -0.0657935 0.062383406 -0.005032583 -0.020679055 0.09429755 0.06375419 0.047280245 0.030159676 0.08203643 0.044072766 0.016347954 0.0053667226 0.06074765 0.035420064 0.0077571706 -0.0063133514 0.00926861 -0.021566592
anushka 0.06977369 0.100111134 -0.014251682 -0.03407087 0.020187339 -0.1648417 0.0727576 0.1697677 -0.061427735 -0.08878764 -0.027582662 -0.111695684 -0.0043059215 0.050972812 0.069231294 -0.053457063 -0.012924938 -0.061436526 -0.046856828 -0.18349472 0.035947476 0.022712724 0.044258147 -0.0792676 -0.02767772 0.048931994 -0.060641058 -0.028288642 -0.062083855 -0.002957329 0.049389668 -0.011030574 0.06504638 -0.14941053 -0.052951623 0.09767493 0.030517606 -0.06557599 -0.03867876 -0.13200887 -0.017417079 -0.026183642 -0.0677871 -0.0070278873 0.11455351 -0.01057161 -0.035225928 -0.03320327 0.06900077 0.03914144 0.04790943 -0.055944145 0.009694317 -0.038658485 0.004126473 0.035967954 0.0051851487 -0.009233374 -0.08845706 -0.04871552 0.03836443 -0.006013047 0.009136116 0.028424103 -0.017719017 0.15611719 0.056762833 0.11238169 -0.1602164 0.11593218 -0.058434736 0.055764947 0.05639142 0.02424553 0.07433636 0.06317087 -0.034834746 0.028506272 -0.046845093 -0.0006871472 -0.035477284 -0.016964529 -0.127503 0.10598833 -0.030482844 -0.046187244 0.16421355 0.10362072 0.088758335 0.052749317 0.14957921 0.08537683 0.025051456 0.014303154 0.108204186 0.045746133 0.033315603 0.003926662 0.018152118 -0.061547354
style 0.06376206 0.1096568 -0.025705928 -0.03244735 0.020941464 -0.14674298 0.0789286 0.16536413 -0.05234918 -0.07176963 -0.028410375 -0.12305303 -0.00039828432 0.043238506 0.06469741 -0.044644352 -0.0072592893 -0.049658593 -0.048062533 -0.18021204 0.025865737 0.009803486 0.026404778 -0.062010564 -0.033034846 0.055551283 -0.062471177 -0.041949954 -0.057010643 -0.009067619 0.032429036 -0.0132005345 0.07086829 -0.14211506 -0.06384275 0.10899526 0.0440621 -0.045512907 -0.04034587 -0.11688658 -0.014188101 -0.019106135 -0.053399164 -0.006936931 0.111567736 -0.021279 -0.031109687 -0.025170336 0.06180561 0.041629795 0.037677 -0.056733124 0.013094518 -0.035279173 -0.0026034822 0.020691006 0.0080048805 -0.013329169 -0.069750465 -0.04758951 0.041601103 -0.015865618 0.004646306 0.033524957 -0.0074567683 0.1365657 0.053274993 0.122613266 -0.15215391 0.10786133 -0.044262417 0.05480931 0.04980266 0.03233403 0.08318344 0.05938391 -0.034792993 0.033979047 -0.028306257 -0.0015753874 -0.030828755 -0.02381756 -0.11251801 0.08428583 -0.021349268 -0.04669336 0.15462808 0.10164515 0.07937503 0.04425767 0.1318946 0.080280274 0.025167195 0.017484285 0.11651292 0.046179913 0.034580227 0.0055741095 0.018430527 -0.04937666
couple 0.056244314 0.08639408 -0.011618502 -0.03459786 0.021541947 -0.14580388 0.07275893 0.1574567 -0.055849705 -0.076735854 -0.032823373 -0.10974469 -0.008641961 0.037113134 0.06267145 -0.043061048 -0.0028897652 -0.0498717 -0.043341048 -0.17326728 0.0180319 0.023661628 0.040363774 -0.06898606 -0.019370718 0.059235256 -0.06817316 -0.035087563 -0.06061851 0.0005643013 0.034779467 -0.009327983 0.066510186 -0.13615419 -0.06596051 0.0963231 0.024322854 -0.06360479 -0.03773777 -0.115536675 -0.008799393 -0.02351108 -0.05725105 0.0054682293 0.10703734 -0.01869103 -0.023612533 -0.036583196 0.050393075 0.03680463 0.038356386 -0.06115141 0.018692628 -0.025028104 -0.015304458 0.02301655 -0.0008180983 -0.00902283 -0.07495044 -0.045954075 0.047281306 -0.010331256 0.01256874 0.037184656 -0.014732349 0.14136702 0.044134054 0.103749305 -0.14943251 0.10571237 -0.05565801 0.060819637 0.052486226 0.013634289 0.07686976 0.05997246 -0.04542159 0.038806066 -0.041441176 0.0014703826 -0.019269384 -0.015884208 -0.11374044 0.085907176 -0.02227104 -0.034166288 0.15668848 0.08958805 0.063211195 0.030865673 0.13259661 0.07350054 0.017729327 0.011256981 0.11052987 0.042383924 0.033288557 -0.00050191046 0.011813604 -0.048335113
two 0.04171997 0.08072039 -0.019747037 -0.020390105 0.02300954 -0.122677796 0.057257827 0.13908899 -0.04735124 -0.06592352 -0.028962366 -0.10281071 -0.0089655295 0.042047985 0.05109738 -0.05432684 -0.01287539 -0.04468011 -0.036572278 -0.15001127 0.03390279 0.008540972 0.034084845 -0.056185495 -0.01567086 0.04126834 -0.047821373 -0.034985434 -0.040920366 0.004009493 0.0345529 -0.005097869 0.057596214 -0.11672632 -0.044089705 0.08833296 0.029160233 -0.044191685 -0.020613179 -0.1088589 -0.0061680963 -0.023231992 -0.04502625 -0.0091282865 0.08704335 -0.012128549 -0.027025511 -0.031501282 0.05616723 0.028205752 0.041804213 -0.051073786 0.024156647 -0.028573632 -0.009066342 0.028305093 0.00355989 -0.0050843293 -0.074632056 -0.031175334 0.03856778 -0.009484134 0.01354963 0.027125048 -0.01391031 0.11456938 0.050429534 0.10540512 -0.13641395 0.105581254 -0.039554246 0.04160997 0.041514937 0.022386437 0.057863653 0.05017105 -0.029116219 0.03850959 -0.02399083 -0.0046859533 -0.025227575 -0.020569127 -0.08836528 0.07263963 -0.02042383 -0.035685543 0.14367923 0.07825455 0.07111954 0.038140487 0.12015169 0.05868586 0.0077565634 0.01553098 0.08457152 0.04487158 0.021654807 -0.0147372065 0.012833908 -0.03446096
social 0.024272323 0.051110126 -0.0183305 -0.024879292 0.0057005263 -0.06939603 0.023309592 0.06623403 -0.036090642 -0.037756238 -0.006977132 -0.061561726 -0.007899245 0.022485642 0.03434268 -0.03287328 0.0066846474 -0.0381553 -0.01573738 -0.07383813 0.018920876 0.0143602155 0.026602317 -0.027596155 -0.01868054 0.030215867 -0.038918238 -0.021518933 -0.01857471 -0.0095247375 0.013091095 -0.009694866 0.030872717 -0.05820791 -0.025090083 0.050404135 0.013357422 -0.021752298 -0.021430664 -0.05663986 -0.012578713 -0.012860318 -0.0219475 0.0028407967 0.043252464 -0.004945579 -0.008597657 -0.018330805 0.020564467 0.015908385 0.01403863 -0.018728351 0.016601125 -0.001357444 0.0065981452 0.0042799013 0.0041829916 -0.014820616 -0.041833 -0.026921146 0.023642128 -0.005555104 -0.0015336617 0.024768567 -0.004145345 0.06523273 0.020842865 0.048134107 -0.071710415 0.05890438 -0.020533714 0.02042291 0.027914824 0.010984398 0.032485075 0.032565262 -0.02224358 0.024800237 -0.020249419 -0.011051719 -0.01581903 -0.012956726 -0.051709987 0.04012845 -0.0051648947 -0.011462252 0.0695911 0.049423862 0.03285081 0.020969557 0.06367378 0.033519186 0.0036518506 0.0010286529 0.050419092 0.023394471 0.0027290795 0.0031116086 0.0074005662 -0.025585089
big 0.02076545 0.04133678 -0.013041437 -0.026722455 0.011097641 -0.07991738 0.025019385 0.069425 -0.017186856 -0.038680766 -0.023303555 -0.04856427 -0.009233107 0.020390458 0.033883516 -0.031026581 -0.011199398 -0.035664402 -0.013890457 -0.0764705 0.018199844 0.009559929 0.02249727 -0.03713631 -0.001011256 0.030245727 -0.025158942 -0.006051587 -0.033978358 -0.0019204045 0.028060975 -0.005674993 0.022170238 -0.066139095 -0.031156514 0.043045748 0.0143360775 -0.018747553 -0.016300341 -0.05253077 -0.0089920815 -0.0030775028 -0.03496177 -0.012489418 0.0425181 -0.014697688 -0.022454094 -0.0116155185 0.025568377 0.020215472 0.024244543 -0.029025085 0.010237587 -0.011283875 0.006857933 0.020695612 0.002543535 -0.0061767614 -0.04393323 -0.022393351 0.012928502 -0.005680238 0.00050003396 0.011820294 -0.0046697445 0.067532085 0.014762829 0.053718224 -0.063803464 0.056251198 -0.025030933 0.03527331 0.03303865 0.01123131 0.03637004 0.014613139 -0.021155002 0.014811806 -0.0140835345 -0.003487117 -0.019833582 -0.0014213705 -0.05910892 0.05101154 -0.004908076 -0.023589147 0.07591037 0.05473912 0.028233815 0.01365067 0.07622734 0.03866712 0.01811633 -0.0029226828 0.04870112 0.030667484 0.008933735 -0.0054767528 0.0025049327 -0.028871527
fat 0.0239793 0.06321702 -0.0113453 -0.028113695 0.022305725 -0.088128604 0.03477602 0.09003493 -0.029127248 -0.048984487 -0.018518891 -0.066947244 0.007394517 0.032747064 0.037310325 -0.03412962 0.0004770172 -0.032462537 -0.031675912 -0.106339775 0.013531618 0.011064629 0.01315702 -0.043860998 -0.004613266 0.02383038 -0.026708186 -0.017020192 -0.03595309 -0.008343451 0.022383533 -0.0008597966 0.027619129 -0.08065518 -0.04028173 0.06071916 0.017197015 -0.026686285 -0.020470815 -0.07409456 -0.0068793674 -0.012877452 -0.029702574 -0.012509194 0.047953647 -0.01516789 -0.017715406 -0.01849073 0.029380905 0.025850672 0.027287168 -0.030866358 0.006770775 -0.013469207 -0.007034025 0.008679385 0.014274066 -0.01238962 -0.05393014 -0.016706668 0.03222484 -0.00677957 0.0088680005 0.014768684 -0.011149444 0.0680349 0.02064457 0.051899493 -0.087352835 0.069743134 -0.017178336 0.028845789 0.027777677 0.02072196 0.043030668 0.023406306 -0.016642673 0.019752275 -0.024896152 -0.009276897 -0.0038778877 -0.00034629245 -0.06980795 0.04479984 -0.011357108 -0.019205716 0.07754687 0.064645596 0.035147827 0.028200341 0.08844298 0.044703364 0.014176564 0.0051932493 0.049519405 0.027468486 0.0118562905 -0.0144228 0.018524868 -0.034438685
celebrations 0.05945328 0.09103492 -0.029375087 -0.038583383 0.03127454 -0.15054238 0.0706074 0.15684055 -0.04700524 -0.06813238 -0.020272354 -0.10151516 -0.01121604 0.032730374 0.058759183 -0.050193958 0.0006256561 -0.054991204 -0.046872165 -0.16745526 0.022074863 0.009600673 0.037779193 -0.07540257 -0.023559226 0.04403805 -0.054929454 -0.03721904 -0.04900591 -0.009337148 0.047640167 -0.017420258 0.059771895 -0.12619874 -0.048026714 0.089102425 0.02916475 -0.0625575 -0.022971166 -0.120292015 -0.002805184 -0.025682969 -0.049230766 -0.009566935 0.1006704 -0.012093161 -0.04258964 -0.018396929 0.049886033 0.040967535 0.03980312 -0.054433253 0.020655626 -0.016987486 -0.014250899 0.03634787 0.016261512 -0.011761629 -0.070934616 -0.032877136 0.04637558 -0.012275201 0.014693529 0.03351105 -0.0061612925 0.1442044 0.044586282 0.10985192 -0.15329592 0.10405766 -0.057283998 0.0556115 0.045509964 0.019385722 0.07877318 0.044520997 -0.037165586 0.032453083 -0.03698706 -0.01689166 -0.032249168 -0.008352825 -0.11196878 0.09233423 -0.025117049 -0.037802886 0.15269597 0.08514455 0.06774536 0.031307597 0.124788135 0.07022574 0.014922984 0.014522315 0.10276811 0.03464199 0.024315916 -0.008451587 0.013326591 -0.051827967
this 0.023435839 0.038614333 -0.017075283 -0.024569154 0.015509559 -0.08082612 0.026537916 0.08504203 -0.020278936 -0.044121426 -0.008944251 -0.062875286 -0.0011028879 0.028862543 0.028907493 -0.014920617 -0.0028388796 -0.02497949 -0.014731969 -0.09539629 0.008104395 -0.0002202163 0.017376712 -0.04100287 -0.011571097 0.015221683 -0.02969576 -0.016209016 -0.018821642 -0.011889906 0.01621955 0.0010585124 0.039020162 -0.06641755 -0.027934013 0.04054142 0.017368944 -0.03474133 -0.024292426 -0.05623049 -0.0051473104 -0.005568333 -0.03811544 -0.0015843809 0.04902779 -0.012159323 -0.017974943 -0.0060077175 0.016838066 0.018942336 0.02335729 -0.026306883 0.011107347 -0.003523005 0.0058588195 0.016208995 0.013005939 -0.015085455 -0.03035237 -0.014049914 0.014393713 -0.009736543 0.012005684 0.021964138 -0.016206859 0.06724566 0.02418165 0.053591043 -0.063153796 0.045713738 -0.012877396 0.016474592 0.030106036 0.020906422 0.032388236 0.014766409 -0.010326561 0.0060794805 -0.026852386 -0.0044678324 -0.018162875 0.0015901192 -0.044728044 0.043887865 -0.002583445 -0.0074031325 0.079165384 0.052286055 0.040540755 0.027012367 0.072651535 0.043957863 0.00028840802 0.016263664 0.05975771 0.033049375 0.0010937596 -0.007370513 0.00936118 -0.019311534
december 0.045218103 0.095517784 -0.012411463 -0.0206212 0.02322418 -0.14067121 0.07111437 0.15313141 -0.052627794 -0.082543194 -0.03050922 -0.105279036 0.0013918228 0.0308514 0.058656342 -0.04529734 -0.0022944333 -0.06237915 -0.03831381 -0.1673024 0.018396521 0.027853072 0.027385179 -0.0665598 -0.013971855 0.04968428 -0.0671881 -0.030409683 -0.055644784 -0.010882687 0.031317554 -0.0067653507 0.04702463 -0.122137204 -0.06206882 0.09744447 0.028542232 -0.059709102 -0.020508474 -0.12292358 -0.0067783506 -0.02714067 -0.06130563 -0.012087995 0.10432959 -0.016814835 -0.029550394 -0.036649622 0.055280495 0.031528074 0.032494675 -0.06194698 0.011138144 -0.030108707 -0.008372654 0.02637073 0.001995989 -0.020818444 -0.069233716 -0.037796237 0.04831231 -0.006549404 0.020852279 0.029467426 -0.019094337 0.13417295 0.04068402 0.11382227 -0.13199137 0.10423023 -0.039690197 0.05924586 0.051415287 0.025717676 0.078394026 0.052990153 -0.043924097 0.02527629 -0.033523522 -0.008909487 -0.014875531 -0.02620771 -0.10752533 0.096504845 -0.022267722 -0.044187084 0.15020849 0.08551463 0.06815121 0.032310832 0.13398677 0.08079677 0.022048786 0.02102125 0.11045611 0.0472598 0.020411499 0.0027533136 0.009694939 -0.050550826
married 0.038599115 0.0614205 -0.015421111 -0.024704987 0.022508088 -0.083993375 0.0321071 0.09512396 -0.025087677 -0.037243497 -0.01885896 -0.05261975 0.007554291 0.030737711 0.044930294 -0.033631857 -0.0006703503 -0.033703566 -0.01811514 -0.085821465 0.0204552 0.013585722 0.025523448 -0.030039435 -0.013493097 0.018616028 -0.037396282 -0.008603591 -0.033703897 -0.001153529 0.026783075 -0.013488127 0.039511517 -0.06997641 -0.028976582 0.06019572 0.020384189 -0.029711017 -0.02502332 -0.053936526 -0.014616303 -0.0051239543 -0.025297139 -0.0023627179 0.04695093 0.0023654702 -0.02080867 -0.010135309 0.02692819 0.013805149 0.021631446 -0.041343056 0.0038922268 -0.02441637 0.0024997 0.016243856 0.003227984 -0.0013257228 -0.043608777 -0.027566303 0.02639309 -0.011596727 0.0074385214 0.028214158 -0.007134387 0.08126675 0.032912485 0.056613937 -0.08417523 0.0676211 -0.024198921 0.027683822 0.027331736 0.0061972085 0.042844675 0.025792252 -0.015545789 0.014884211 -0.018963262 -0.0008601154 -0.021335633 -0.011994241 -0.0672892 0.050497644 -0.009616193 -0.017304732 0.084428556 0.051256243 0.043507915 0.020431235 0.08141337 0.03788954 0.0045785974 0.0016469696 0.04748451 0.015115423 0.016778313 0.0015253193 0.004545993 -0.03490168
friends 0.027384583 0.06737614 -0.022237191 -0.014877371 0.023556625 -0.08594559 0.033977423 0.103443325 -0.040514767 -0.038473975 -0.024320217 -0.07396385 0.0025573429 0.025030548 0.047337536 -0.03485122 0.0028431634 -0.04785695 -0.021590674 -0.112993814 0.011194484 0.012556767 0.022195596 -0.04123299 -0.01714471 0.021667393 -0.04891612 -0.027951483 -0.04213781 -0.007453855 0.03494118 -0.009544374 0.02913139 -0.08742305 -0.033180147 0.056977686 0.019162236 -0.03865579 -0.010560622 -0.08264808 -0.012515198 -0.008625672 -0.04272476 -0.0005228389 0.06344229 0.0026294186 -0.018433759 -0.014650035 0.03734595 0.024198957 0.027294476 -0.040828336 0.017662756 -0.010292798 0.0059185764 0.018717157 0.0040690773 -0.00061170635 -0.056720387 -0.023867482 0.01952074 -0.00044073517 -0.0012761954 0.02568803 0.0027646439 0.08373521 0.021931205 0.061108287 -0.087168716 0.06061482 -0.024413336 0.031781282 0.039140224 0.013084493 0.038871944 0.027419621 -0.022484876 0.016226139 -0.013424304 -0.009292867 -0.020752132 -0.010232646 -0.07193061 0.048989695 -0.018575238 -0.023798047 0.09693763 0.063303 0.054640625 0.031826697 0.09247526 0.04847976 0.0059964387 0.01799301 0.06475293 0.033295635 0.015918657 0.0029727807 0.018049736 -0.036829498
lavish 0.02444454 0.04879524 -0.006779675 -0.026826307 0.0173915 -0.073102765 0.032142162 0.07842259 -0.036720816 -0.03182305 -0.025195502 -0.0653255 0.0033744432 0.014954628 0.029753972 -0.027245536 -0.0045385384 -0.037329234 -0.018524773 -0.08988465 0.01845074 0.0064338823 0.025803445 -0.04489806 -0.006016105 0.0194165 -0.030020751 -0.023043111 -0.02964074 -0.009575292 0.016900115 0.004870416 0.033466745 -0.06566703 -0.036361758 0.05430224 0.009311243 -0.030291615 -0.023470432 -0.06668069 -0.0027232752 -0.014927971 -0.027567366 0.0007370795 0.043792956 -0.009312047 -0.021692302 -0.022913469 0.015544087 0.020474339 0.024545945 -0.029488834 0.0036268204 -0.00901603 0.000677004 0.004165541 0.012349498 0.00032426944 -0.047499295 -0.019153452 0.027374841 -0.008320847 0.0055145393 0.012366696 -0.00049720984 0.07602643 0.027730925 0.05067008 -0.07517903 0.051515575 -0.03376124 0.03509626 0.024289396 0.011083396 0.044964794 0.01630755 -0.010947107 0.008308168 -0.024473378 0.00078755897 -0.015633857 -0.011137333 -0.06130648 0.041930947 -0.014151263 -0.022097478 0.08697139 0.05912489 0.03649043 0.02076672 0.06519062 0.04718558 0.0034949614 0.01345369 0.062736 0.030351127 0.010413225 0.0015739874 0.017524738 -0.027987368
extravagant 0.025340172 0.050381735 -0.0022583182 -0.016053423 0.013939098 -0.07567282 0.019468896 0.068621464 -0.03162376 -0.03531892 -0.01877913 -0.05243606 0.0063185575 0.030787632 0.037746906 -0.020078827 -0.0052061747 -0.025074087 -0.0232111 -0.090908036 0.020349678 -0.001844572 0.021270039 -0.03571633 -0.016180329 0.021261485 -0.03469945 -0.0057996903 -0.031208873 -0.011720299 0.024211567 5.4404496e-05 0.03239524 -0.05866277 -0.030677704 0.038601335 0.017386694 -0.016607583 -0.020963794 -0.056631822 -0.0027642434 -0.0039488417 -0.03349053 -0.007593639 0.042208593 -0.005301582 -0.011357172 -0.005893006 0.013617746 0.024728103 0.016115827 -0.029693672 -0.0009566867 -0.017063404 0.008282887 0.015341837 -0.0036830842 -0.0041605346 -0.043247305 -0.025952995 0.022989668 -0.00309309 0.0064195106 0.02403178 0.00043319137 0.0571748 0.025973639 0.0525783 -0.06360383 0.058169555 -0.028371729 0.022195881 0.023704393 0.017118417 0.03323815 0.031050207 -0.020608738 0.0052181804 -0.024218615 -0.007830897 -0.0012961827 -0.011986467 -0.05450643 0.048900824 -0.017444663 -0.014138839 0.075751305 0.0372951 0.032758527 0.016835943 0.06972265 0.030761167 0.0011830456 0.01671405 0.04348897 0.029887196 0.0016264148 0.0033614761 0.005881951 -0.029851153
one 0.039923802 0.069330044 -0.015465176 -0.023662116 0.012884299 -0.11037307 0.04613477 0.12506059 -0.035489336 -0.055933483 -0.028692795 -0.07690309 -0.011599664 0.03255187 0.052124493 -0.03927477 -0.007740908 -0.05134639 -0.04279235 -0.1206663 0.023284664 0.0120739285 0.035229042 -0.05772799 -0.017950704 0.03561278 -0.055681694 -0.033854775 -0.031201806 -0.006663215 0.021338943 -0.00032333497 0.035273746 -0.09947425 -0.039764885 0.066136435 0.017555373 -0.044285286 -0.030597975 -0.08398158 -0.010578853 -0.019162243 -0.038188163 -0.0053340676 0.082878776 -0.0019483636 -0.026811667 -0.020798944 0.04089943 0.03248423 0.038443647 -0.04722663 0.01314598 -0.023035895 -0.0045859944 0.014332689 0.003426099 -0.017803598 -0.055852566 -0.025331123 0.035615914 -0.010153123 0.015863363 0.017667476 0.0027390125 0.10048043 0.04136883 0.08567896 -0.10588785 0.081075855 -0.034272816 0.027933976 0.03237827 0.01211353 0.042736117 0.041606817 -0.022246102 0.023935778 -0.01643156 -0.0077176187 -0.018726246 -0.007040327 -0.0878717 0.058148555 -0.008543772 -0.033646457 0.120331846 0.07476272 0.047218766 0.037985772 0.107834354 0.048497394 0.0044364613 2.66897e-05 0.08049928 0.03776582 0.017280893 -0.0020797208 0.006036776 -0.0396205
entire 0.04924423 0.06763376 -0.024351062 -0.022524092 0.011689482 -0.12395381 0.057814673 0.13717483 -0.05155878 -0.05172184 -0.015357757 -0.08299326 -0.0067470814 0.044658277 0.04487899 -0.04213995 -0.0034108516 -0.05258187 -0.047282644 -0.13502057 0.030148255 0.00870516 0.022457104 -0.046830036 -0.020242076 0.030389914 -0.042795688 -0.02999132 -0.03768052 0.00060932856 0.03974241 -0.0022631967 0.053577304 -0.112378545 -0.043093767 0.07595614 0.028506866 -0.032508813 -0.016958743 -0.10188301 0.0049328953 -0.021438604 -0.04486538 0.002451953 0.07400619 -0.009936486 -0.026841452 -0.014840846 0.047316227 0.024950517 0.022989182 -0.050866503 0.023317726 -0.032725457 0.0065869316 0.023837835 0.006075876 -0.0011259458 -0.048064586 -0.021253511 0.043143563 -0.018480064 0.015635636 0.016334735 -0.018124593 0.09933093 0.043469615 0.095689595 -0.121824645 0.082852505 -0.041670512 0.034329236 0.037206646 0.022252128 0.061518952 0.03805401 -0.032401662 0.025576135 -0.030563299 -0.0014499153 -0.009654002 -0.005465301 -0.09375984 0.06372011 -0.028660899 -0.034600563 0.1221864 0.069275215 0.061391536 0.03897073 0.11051029 0.059375003 0.025430188 0.018625459 0.08189789 0.027544713 0.020852372 0.0051703765 0.022182621 -0.041097946
parties 0.051603604 0.07406863 -0.008524077 -0.027951693 0.023656974 -0.10894813 0.039805826 0.1254935 -0.050279655 -0.06254202 -0.020593686 -0.07270507 -0.0042571244 0.039570548 0.054467574 -0.03154463 -0.011815921 -0.03667005 -0.043076534 -0.13366324 0.026080545 0.004599459 0.03096813 -0.05118959 -0.01914218 0.02905982 -0.05219844 -0.028136764 -0.0300943 0.002982181 0.01889808 -0.017057732 0.046787634 -0.10574125 -0.03475621 0.078095615 0.016239986 -0.030028218 -0.012527636 -0.08872414 -0.0034031868 -0.025031244 -0.03614494 0.005605151 0.07938573 -0.018119862 -0.021239182 -0.023637798 0.037540447 0.03144673 0.031374272 -0.038902905 0.0070447573 -0.016313188 -0.006693343 0.021950802 0.01293856 -0.0061201644 -0.046700064 -0.031881306 0.03514695 -0.00036774878 0.0038507215 0.029771306 -0.019644609 0.11022404 0.04248497 0.088220984 -0.103081 0.08473019 -0.040131327 0.030333987 0.03386504 0.018155348 0.051097468 0.030210534 -0.03322979 0.034324404 -0.016406251 0.001251624 -0.022202855 -0.011852545 -0.08925078 0.072461866 -0.017400911 -0.018724078 0.10533873 0.0673378 0.05850968 0.03158459 0.09352046 0.04705956 0.017625077 0.0021515144 0.083749995 0.03787837 0.016387684 -0.007973583 0.005153078 -0.03684693
everything 0.051635504 0.07695331 -0.02282584 -0.014936038 0.012236335 -0.11169064 0.059491463 0.13059667 -0.053153373 -0.054049414 -0.0329997 -0.093125604 0.0075854375 0.0265043 0.045303684 -0.043350372 -0.0018281096 -0.04309992 -0.043013033 -0.14217693 0.030718258 0.023740165 0.037239082 -0.05014558 -0.016426364 0.04031462 -0.04802903 -0.021779582 -0.03952021 -0.0024177716 0.027744055 -0.017529616 0.054614246 -0.11037283 -0.041893926 0.07624366 0.023915244 -0.046892516 -0.018843219 -0.09936212 -0.0129537145 -0.023144936 -0.04084759 0.0032539268 0.078747734 -0.0025922935 -0.036059726 -0.026723916 0.034865525 0.021428365 0.038908206 -0.05678371 0.005398541 -0.032746166 0.0061435536 0.021448875 0.008090711 -0.017026147 -0.06073011 -0.029881503 0.031451575 -0.015564163 0.0020472896 0.02839639 -0.02026391 0.110121846 0.03947294 0.09687932 -0.11599661 0.09204942 -0.046397403 0.031870853 0.044383578 0.018505791 0.05292976 0.038608957 -0.019862883 0.018437447 -0.031473435 -0.004357209 -0.019574018 -0.003501435 -0.08837631 0.063723184 -0.02712946 -0.038238846 0.111266345 0.06936547 0.0537174 0.028890647 0.10743257 0.05390676 0.018575698 0.016100826 0.09279564 0.02990754 0.026963692 0.004677188 0.010731614 -0.044853132
timeline 0.032788966 0.055805087 -0.0056250147 -0.009740044 0.025123639 -0.10357836 0.048051037 0.110368215 -0.030431071 -0.05725153 -0.02033194 -0.07841313 -0.0109319845 0.030847905 0.05313122 -0.024448883 -0.011631167 -0.034075994 -0.034110557 -0.10285298 0.008670347 0.021125017 0.015227693 -0.04855544 -0.015154197 0.031024346 -0.049242258 -0.022664666 -0.034340523 -0.008411255 0.030770844 -0.0058673066 0.046195082 -0.07709524 -0.042984016 0.067567825 0.028051035 -0.028268905 -0.012680927 -0.080669716 -0.000100584104 -0.015060025 -0.03702633 -0.008351164 0.06701997 -0.002410784 -0.032384567 -0.009226834 0.038091283 0.02236692 0.021970902 -0.037841912 0.017766245 -0.013941825 -0.008459169 0.027363587 0.0051403763 -0.017080225 -0.038095262 -0.01910801 0.031113943 0.001570814 -0.0011342835 0.015186219 -0.010778928 0.0842919 0.031972867 0.07138171 -0.10239663 0.071597055 -0.029269068 0.031165758 0.036198292 0.015740525 0.05324314 0.03138119 -0.014909623 0.021000167 -0.019221887 -0.008310666 -0.009686752 -0.007885291 -0.06934324 0.06628867 -0.023622455 -0.013274755 0.09763574 0.05885325 0.044427585 0.015299989 0.08508368 0.05035344 0.019926311 0.019205064 0.05903091 0.03699502 0.008932752 0.0015777278 0.019968247 -0.032572467
file 0.022165041 0.043190315 -0.0087613985 -0.016603954 0.004193012 -0.075696334 0.03793469 0.091143236 -0.025381088 -0.036997356 -0.026850598 -0.05320945 0.002980763 0.015651587 0.033296436 -0.02563523 -0.0042251833 -0.031098146 -0.030552797 -0.09263919 0.01914547 0.0084415665 0.018723784 -0.03228404 -0.017739384 0.018427335 -0.024174767 -0.027770523 -0.030317277 -0.003041339 0.013019148 -0.005445418 0.03907171 -0.07128316 -0.021768285 0.051804014 0.01257878 -0.029932512 -0.015537372 -0.05621811 0.0036276896 -0.007322269 -0.036330517 -0.0087630395 0.060069 -0.004050447 -0.013391188 -0.014526859 0.03669952 0.009147363 0.030873662 -0.03990036 0.00805032 -0.009366646 -0.011609053 0.020349687 -0.0024866401 -0.014212923 -0.036605485 -0.01833532 0.020161755 0.002126385 -0.0014490106 0.017927159 0.0016327739 0.075077556 0.021097008 0.06286189 -0.08271905 0.058260486 -0.023606777 0.03404067 0.033265408 0.006682657 0.04840989 0.022438476 -0.011651857 0.010707668 -0.026342342 -0.004659382 -0.02092722 -0.012359724 -0.058479305 0.047273546 -0.023192732 -0.02580841 0.07235386 0.049999718 0.04547964 0.020224556 0.08218082 0.03519481 0.01896603 0.014041911 0.06439409 0.022759186 0.014171849 0.00035533882 -0.00024360558 -0.016001333
not 0.007595226 0.025325576 -0.0016711892 -0.0026489613 0.0035456577 -0.037166227 0.0138735995 0.032461934 -0.020620741 -0.01820646 -0.007871529 -0.025485685 0.003262268 0.010154614 0.016475162 -0.015394084 -0.006696877 -0.0051991646 -0.0016805467 -0.025979364 0.00981971 -0.0048690066 0.014744131 -0.019159604 -0.01258068 0.017899273 -0.013857659 -0.015730267 -0.012859841 0.0057796845 0.004619159 0.002780413 0.010402589 -0.019929722 -0.008957629 0.0077603175 0.002674495 -0.0006588086 -0.0037067647 -0.026759123 0.006050825 0.0029811247 -0.0028212217 -0.000494147 0.009125515 -0.005832535 -0.0010063645 -0.012140725 0.01990429 -0.0038055335 -0.0010014208 -0.016167255 0.009379496 -0.013098073 0.0077548 -0.0049786367 0.005288009 0.0010370838 -0.013372713 0.0032927436 0.013258672 -0.0018838657 0.0071882526 0.012534919 0.0011499604 0.034588173 0.008673138 0.01108074 -0.031192724 0.017928608 -0.016788539 0.00755583 0.016692976 -0.001225436 0.01866499 0.014141289 -0.0074846605 0.007952163 -0.00031061942 -0.008306214 -0.0006325398 0.006322313 -0.022800928 0.008338857 -0.014093231 -0.016274385 0.031274185 0.022438098 0.020864645 0.0051973313 0.025424298 0.01671933 -0.006715491 -0.0076681077 0.02400773 -0.0012913374 0.0020132645 -0.0056221294 0.009594336 -0.011699267
ambanis 0.019746909 0.016485794 -0.008597404 -0.0089650415 0.005712468 -0.030109184 0.018810218 0.03602115 -0.005064631 -0.020279575 -0.01129394 -0.018676491 -0.0015858115 0.0016232242 0.01898234 -0.0013876617 -0.0050522396 -0.006618817 -0.0023608403 -0.026352106 0.013483348 0.0010946472 -0.0011190218 -0.011671993 -0.012937805 0.01876912 -0.019359402 -0.0068421145 -0.011714328 0.002846447 0.011847627 -0.01039662 0.004754135 -0.021253457 -0.0053424085 0.020983232 0.0044669495 -0.009720169 -0.013152238 -0.014226824 -0.009006979 -0.0010235402 -0.012860384 -0.008484113 0.023880562 -0.002561268 -0.015707655 -0.014894585 0.009524807 -0.00283174 0.01037322 -0.0063819042 0.006751034 -0.010546925 0.00745528 -0.004862279 0.009023879 -0.0028834273 -0.013728943 -0.0019822048 0.004705827 -0.0067253574 -0.00039833836 -0.0009475452 -0.002219275 0.017203633 0.014010286 0.008140213 -0.02877009 0.008373661 -0.018455975 0.0075744973 -0.0004186324 -0.0023622727 0.014972339 0.007609606 -0.0028870646 0.014742374 -0.015844982 0.0048432704 -0.012671081 0.004111401 -0.009952854 0.023760777 -0.012358379 -0.002811539 0.016819544 0.014346031 0.0068107923 -0.002786572 0.027538955 0.017095916 -0.0011987648 -0.006188686 0.021251848 0.0027680486 -0.004541908 -0.0053473487 0.0009321068 0.0017399144
pink 0.037297685 0.08299435 -0.0075688423 -0.029621447 0.01865829 -0.118597254 0.056007855 0.12332062 -0.046495195 -0.068744905 -0.017401284 -0.09660689 -0.011177178 0.034924615 0.052892506 -0.037675064 -0.0036309296 -0.042613644 -0.033598304 -0.12849699 0.017794887 0.0065088565 0.02030319 -0.04255934 -0.017320458 0.03355695 -0.04216545 -0.017177792 -0.032174706 -0.009500789 0.026636329 -0.011195699 0.038710147 -0.096817985 -0.039229576 0.06929601 0.03335805 -0.049698677 -0.016655643 -0.096695974 -0.0033076843 -0.022553314 -0.041778885 0.0047688438 0.07689495 -0.015561324 -0.035321128 -0.018804247 0.046750758 0.03364719 0.02615337 -0.05631454 0.021359522 -0.025764067 0.00025053238 0.031091982 0.0021427313 -0.008370325 -0.06336161 -0.037251797 0.027124286 -0.009177946 0.00015300518 0.023487017 -0.01078685 0.11339662 0.04320946 0.090495594 -0.109372556 0.07983091 -0.04503014 0.051410228 0.04478034 0.007955055 0.061044518 0.051341213 -0.019596074 0.01858094 -0.029954292 -0.0047546374 -0.01575155 -0.014839064 -0.08903999 0.07672399 -0.011482176 -0.028359162 0.11207797 0.06966426 0.05211467 0.036149267 0.10743295 0.055915352 0.004980222 0.008561067 0.08827599 0.039410513 0.026408235 -0.0061990363 0.024622932 -0.03619461
events 0.035463326 0.06573386 -0.018490436 -0.01230849 0.02603648 -0.08521594 0.044948965 0.10161094 -0.03646796 -0.05455981 -0.017976074 -0.06731187 -0.0099466005 0.02751451 0.045627244 -0.03792635 -0.00025307058 -0.027999852 -0.038251717 -0.103676386 0.007645498 0.0023084048 0.02895754 -0.048181742 -0.01719639 0.021702575 -0.047521025 -0.028434012 -0.031156393 -0.0004219465 0.01615354 -0.015321206 0.03177795 -0.08232984 -0.040392276 0.054046582 0.025750918 -0.029721174 -0.011755977 -0.06609689 -0.0053149005 -0.01384531 -0.025300084 0.00018887689 0.06328697 -0.0064638346 -0.031450067 -0.010767462 0.03854532 0.02201552 0.03428774 -0.0435599 0.015937436 -0.024645207 -0.013598899 0.019961486 0.009685549 -0.0010728221 -0.055854782 -0.017302478 0.028564688 -0.0019094932 0.007467264 0.026394801 0.0016636426 0.07424088 0.021917298 0.075056545 -0.089809075 0.055751693 -0.034811404 0.03236121 0.038567334 0.010593419 0.042166118 0.02379113 -0.030693745 0.023180492 -0.02030114 -0.0131172715 -0.014364808 -0.020200493 -0.069111764 0.05868871 -0.012859864 -0.014060216 0.09965983 0.05717775 0.051222403 0.031886514 0.09278676 0.055353988 0.016531084 0.012412319 0.07078406 0.024103474 0.010899809 0.006378214 0.013876881 -0.034300316
happened 0.02930975 0.046900533 -0.001246493 -0.013309767 0.01826382 -0.071220234 0.044702318 0.080619566 -0.036742292 -0.04442612 -0.021064315 -0.069656804 -0.003221508 0.014251537 0.045018055 -0.03004208 -0.008889349 -0.0394967 -0.029528689 -0.10372031 0.015053946 0.014746208 0.015918443 -0.027980527 -0.015568418 0.018658537 -0.03796325 -0.021717392 -0.034973435 -0.012038728 0.017055966 -0.0076348176 0.035577785 -0.078029625 -0.035074323 0.05262415 0.01772115 -0.025198232 -0.018029248 -0.05730932 0.004440081 -0.022641607 -0.026477128 0.0045394707 0.053302106 0.0005566409 -0.02509038 -0.018851932 0.021332119 0.028732575 0.012143778 -0.036634285 0.010606384 -0.019760344 0.0057949177 0.00889931 -0.003925349 0.00301523 -0.049756534 -0.00903792 0.018837703 0.00042474284 0.006981112 0.014221176 -0.0124053955 0.066160284 0.03506912 0.06585803 -0.07748457 0.063796245 -0.022804346 0.03116134 0.028786765 0.0007662632 0.04722485 0.019212898 -0.022864994 0.020229628 -0.011830032 -0.0138471965 -0.011561869 -0.003018549 -0.067163795 0.057521112 -0.017552793 -0.009693986 0.074857466 0.057949085 0.050028816 0.013006145 0.07390909 0.032691702 0.018202536 0.016196404 0.049310397 0.023477063 0.012284424 -0.010715958 0.01197746 -0.0351967
reception 0.04449897 0.06433042 -0.008063326 -0.014856588 0.016730083 -0.11412039 0.039693464 0.12625267 -0.03871439 -0.04729007 -0.020256775 -0.08529503 0.0016649662 0.041874703 0.05887633 -0.028321406 -0.01398023 -0.049975947 -0.027489834 -0.13751873 0.024200233 0.020646866 0.022106713 -0.04135009 -0.027437655 0.042825587 -0.040569346 -0.021609224 -0.04737072 0.006466556 0.037283577 -0.011618268 0.04784793 -0.09140571 -0.04338445 0.07768502 0.021557964 -0.04022553 -0.02204543 -0.09176433 -0.0058766976 -0.026978262 -0.0390883 0.0065812906 0.08014822 -0.002765685 -0.031366903 -0.015481657 0.03316795 0.02082163 0.0394153 -0.037394106 0.0082446635 -0.027519198 0.004700576 0.02500732 0.013312056 -0.017386077 -0.05557807 -0.028967952 0.031621873 -0.005702844 0.0005275581 0.028571878 -0.012856404 0.11026345 0.038052868 0.09213824 -0.10923829 0.08598732 -0.04437346 0.0275021 0.035815734 0.014331931 0.06443023 0.043269627 -0.03219204 0.03334784 -0.025219945 -0.014617851 -0.01222852 -0.0143489465 -0.09050023 0.07478561 -0.010733422 -0.018032843 0.11189318 0.07855659 0.061000396 0.021242073 0.11033288 0.051145397 0.005267901 0.020122346 0.07280254 0.040876865 0.011939247 0.0069485037 0.0075766714 -0.030938642
bollywood 0.03794919 0.053347323 -0.012006135 -0.02050143 0.0033853229 -0.068344586 0.041608177 0.07474451 -0.022290375 -0.030903356 -0.025085585 -0.053752862 -0.00967303 0.016162608 0.03396072 -0.032340754 -0.0061976346 -0.037026394 -0.031406756 -0.0946308 0.023154153 0.01694945 0.017684896 -0.035891693 -0.0068348595 0.025644235 -0.0417998 -0.024605213 -0.02481915 0.006183345 0.023206284 0.0040379614 0.034965724 -0.06565146 -0.019138554 0.05658185 0.026208121 -0.016938115 -0.024455128 -0.05388912 -0.011669269 -0.020920226 -0.03645504 0.0019270463 0.050249737 -0.012321281 -0.01239458 -0.005146642 0.031636048 0.025876846 0.016205471 -0.037333414 0.014470672 -0.01699859 -0.011062136 0.01821509 0.0007050036 -0.011067995 -0.03594954 -0.01054188 0.027862672 -0.0046623372 0.015555451 0.02019221 0.0025805961 0.06664055 0.028570618 0.06191754 -0.08250126 0.05903316 -0.023651311 0.03139148 0.023156386 0.0073654857 0.029571969 0.022563929 -0.021503637 0.012625118 -0.014782914 0.003611606 -0.0073898253 -0.016705599 -0.061604183 0.041277394 -0.0070874863 -0.027692314 0.082249 0.050896917 0.035132095 0.030207755 0.07699571 0.038390882 0.014387121 -0.0033294195 0.042973403 0.017764695 0.023046741 0.0010220717 0.01571074 -0.030688558
squad 0.05413115 0.08589185 -0.016351243 -0.030982787 0.027558923 -0.1405816 0.065003775 0.14637211 -0.05184096 -0.071630865 -0.035008356 -0.10447173 -0.007856703 0.04159599 0.05172146 -0.044221852 -0.0134875765 -0.054884605 -0.04097983 -0.16242234 0.027400939 0.025244735 0.03628283 -0.05585525 -0.026709259 0.043684125 -0.053226136 -0.02744825 -0.03710138 -0.003912197 0.042912703 -0.0044551417 0.05487371 -0.10823617 -0.05575106 0.081385076 0.036439996 -0.039092816 -0.023436468 -0.10869156 0.00090038637 -0.019054 -0.051801436 0.005601542 0.09319649 -0.007920471 -0.03016166 -0.03445766 0.04475507 0.033410862 0.028834619 -0.045169067 0.02377379 -0.033162147 -0.009987715 0.01950873 0.0060177958 -0.013585502 -0.070157796 -0.036974765 0.040714975 -0.0007185779 0.0041664634 0.020696046 -0.0060205194 0.114629366 0.054211266 0.09889866 -0.1365971 0.087236576 -0.05394557 0.049479205 0.04549572 0.021784713 0.063497305 0.04958032 -0.029490685 0.028885836 -0.039769202 -0.006763374 -0.017854717 -0.017350977 -0.097924374 0.07701035 -0.013516351 -0.03510822 0.14338553 0.08024082 0.05472448 0.029630236 0.11720834 0.06736048 0.021237824 0.013511006 0.10192754 0.038714007 0.030045401 -0.0036997772 0.01509678 -0.035562336
hooked 0.04291947 0.08176387 -0.02315712 -0.03170737 0.019706931 -0.11346236 0.04795761 0.12128022 -0.049310166 -0.066716686 -0.015025633 -0.08795102 -0.006328495 0.029743731 0.04853887 -0.046713743 -0.0051067257 -0.046180516 -0.02523589 -0.14098993 0.014519512 0.01197686 0.027518798 -0.054651737 -0.02434516 0.029638125 -0.04306327 -0.033688534 -0.04371813 -0.0015580851 0.030655188 -0.019037208 0.05150331 -0.10189213 -0.043045137 0.06471038 0.017341591 -0.03966639 -0.016866678 -0.08647864 3.859434e-05 -0.026900271 -0.043611467 -0.0051233824 0.075732574 -0.0045571937 -0.024976978 -0.028243488 0.04341333 0.033241984 0.024347208 -0.041611303 0.010397481 -0.011319215 -0.0005103857 0.023986474 0.0047483887 -0.01877245 -0.048730817 -0.030040452 0.039983127 -0.0032545398 0.000557266 0.023789475 -0.0054057543 0.10153886 0.050281845 0.079664305 -0.117589466 0.08479063 -0.04076952 0.03298419 0.03803236 0.021111697 0.050241016 0.036283422 -0.037859496 0.02857005 -0.02946798 0.00069751666 -0.01821974 -0.009633229 -0.084164344 0.075363226 -0.017012574 -0.03506988 0.10783376 0.07190525 0.0651157 0.033984806 0.098694816 0.049295936 0.004226015 0.014722051 0.06925417 0.035958298 0.023483435 -0.0064255707 0.0056498414 -0.029536657
phones 0.047161184 0.07357491 -0.02460374 -0.016848702 0.02476412 -0.13580032 0.056698214 0.1447988 -0.05990279 -0.073768355 -0.027381554 -0.10625189 -0.0032468312 0.03822362 0.06560855 -0.041906767 -0.0027113215 -0.046177883 -0.042966187 -0.14405254 0.02201476 0.01479389 0.018014485 -0.055366684 -0.014586035 0.044979464 -0.063363746 -0.031902853 -0.052492548 0.0039138715 0.026446348 -0.004757275 0.043726265 -0.12111169 -0.05720171 0.087912925 0.020351863 -0.056423094 -0.03146454 -0.10678796 -0.011035847 -0.021103244 -0.04201816 -0.004085966 0.08326323 -0.0083203465 -0.023483967 -0.028763073 0.040083747 0.035705425 0.04131836 -0.05865896 0.024925815 -0.03307086 -0.013160016 0.018855583 0.007965928 -0.011040249 -0.061924964 -0.0260918 0.04237276 -0.011230011 0.0030665423 0.01954269 -0.009918727 0.12910137 0.0388142 0.10073889 -0.12222763 0.08843677 -0.049793504 0.040127803 0.035676982 0.01089199 0.06988123 0.039164767 -0.038745575 0.035409994 -0.028500194 -0.016430033 -0.026153626 -0.009594982 -0.08953946 0.07521339 -0.01903976 -0.028325086 0.13339937 0.07922092 0.070777886 0.027381523 0.12525146 0.05367441 0.013445955 0.019414557 0.08677781 0.044021234 0.030570114 -0.013784264 0.017559364 -0.045553025
waiting 0.038040157 0.08029203 -0.010070088 -0.016094038 0.016923767 -0.12647188 0.04977595 0.13663682 -0.046634458 -0.074902624 -0.023310572 -0.102650486 -0.0031737825 0.04003655 0.050002873 -0.04135548 -0.005919388 -0.05826886 -0.03991258 -0.142544 0.012915653 0.008971028 0.026534861 -0.046068165 -0.019523926 0.052197695 -0.06140985 -0.018654538 -0.050038405 -0.008155683 0.024325246 -0.008479481 0.044631857 -0.103528544 -0.048528988 0.08407175 0.03457225 -0.057634655 -0.02574583 -0.10389172 -0.0156032 -0.018878717 -0.044665057 -0.0050065685 0.08415783 -0.016575042 -0.031773496 -0.0219472 0.052281693 0.036708824 0.03023041 -0.04586749 0.013407824 -0.027207045 -0.008999114 0.017480155 0.00983381 -0.018851165 -0.07109073 -0.03655765 0.043976646 -0.0062886337 0.014953585 0.03531174 -0.0156012345 0.11148637 0.053248312 0.098941624 -0.11875383 0.09934478 -0.032645013 0.041723642 0.040785193 0.02259508 0.07108892 0.05555309 -0.04274688 0.02547657 -0.022808526 -0.007403931 -0.02111081 -0.005510335 -0.08328654 0.06789663 -0.020902298 -0.03866404 0.13462465 0.08211829 0.061205916 0.035884213 0.1228869 0.070269585 0.021662159 0.015074964 0.08947127 0.044326544 0.025628503 -0.0055933003 0.0074417074 -0.03696202
come 0.04137542 0.09470118 -0.023770254 -0.02897007 0.025021544 -0.13594557 0.05129502 0.1507054 -0.059486415 -0.07932934 -0.023880502 -0.10206692 0.0025560698 0.030913189 0.06055623 -0.04578012 0.0019858654 -0.06366163 -0.034477506 -0.1684859 0.015555574 0.017071897 0.027039327 -0.06275995 -0.027599268 0.049368437 -0.06759373 -0.028523616 -0.04462151 -0.0023779 0.034136035 -0.003740028 0.04217877 -0.12946469 -0.04759235 0.09691731 0.023152275 -0.06113474 -0.026025126 -0.116327964 -0.005416951 -0.014313739 -0.056877915 -0.009855883 0.10209731 -0.011335193 -0.03484207 -0.027610142 0.039106622 0.027600506 0.032240983 -0.05324047 0.018166298 -0.016376836 0.0012126407 0.02421577 -0.003024504 -0.008806483 -0.07498458 -0.025073012 0.043124378 -0.009900786 0.01690571 0.025949894 -0.013745157 0.12507144 0.05739087 0.10790198 -0.13162088 0.10131895 -0.047739286 0.05749355 0.03600394 0.015513107 0.061764743 0.057870645 -0.04028988 0.029999588 -0.023110954 -0.018894877 -0.025622606 -0.010862629 -0.1033017 0.09036802 -0.018145522 -0.03766019 0.14335087 0.094110295 0.069527924 0.043817353 0.11815156 0.06343302 0.026710104 0.018560594 0.09691075 0.036042113 0.030484289 -0.004073681 0.0271539 -0.042959195
biggest 0.043435648 0.054453865 -0.019653866 -0.020669315 0.019623395 -0.09241082 0.04827717 0.09026611 -0.044453878 -0.03969586 -0.013181742 -0.07415831 -0.0071036615 0.02227271 0.040342104 -0.021720812 -0.0019370014 -0.038063686 -0.033404548 -0.11096303 0.0071477406 0.017336491 0.012811538 -0.044241015 -0.02320434 0.039507654 -0.033917982 -0.021873565 -0.028410189 -0.00525197 0.034261268 -0.010644639 0.04004074 -0.08513849 -0.025433468 0.06861641 0.028847193 -0.033975586 -0.02034481 -0.08015557 0.005164319 -0.025272852 -0.041546647 0.0039149723 0.0598619 0.00051870855 -0.030449832 -0.0075217267 0.03639024 0.013577088 0.02907801 -0.043574315 0.019350372 -0.01043903 -0.013384182 0.02471756 0.010208625 -0.00061778486 -0.055046 -0.028528873 0.01781542 -0.0007590753 0.00422791 0.025660893 -0.00083683926 0.09191681 0.034560718 0.06809655 -0.08835166 0.06912271 -0.03989199 0.025866173 0.029447492 0.017352328 0.043764535 0.022275755 -0.023945402 0.029127762 -0.013830951 -0.0021398407 -0.020091908 -0.014554239 -0.06952999 0.049503747 -0.023056503 -0.022898251 0.09618534 0.064025246 0.05063155 0.034263432 0.078468524 0.05645743 0.008356243 0.008967573 0.06023746 0.022200057 0.015560311 -0.010711167 0.021993669 -0.024697777
gave 0.045254756 0.08616516 -0.008909472 -0.031583477 0.026800742 -0.12739575 0.060741894 0.13797987 -0.060593903 -0.06129678 -0.0278754 -0.10559679 -0.003156315 0.030026672 0.06495711 -0.049242254 -0.005472074 -0.05193045 -0.043207143 -0.15622787 0.029671542 0.017923474 0.019115377 -0.05593696 -0.031047083 0.040608414 -0.05024725 -0.024697168 -0.05270562 -0.0006801022 0.038998295 -0.018167943 0.04630838 -0.11720959 -0.058916233 0.086386874 0.03634434 -0.048279356 -0.022048235 -0.10363948 -0.008229675 -0.02883174 -0.049485266 0.003910287 0.09220247 -0.009559661 -0.021623021 -0.020923126 0.038624734 0.038282875 0.044331618 -0.06011499 0.023746077 -0.030759415 -0.005771917 0.029279191 0.0007173257 -0.019409252 -0.072970726 -0.043157563 0.030844852 0.001389812 0.012664013 0.019064775 -0.0012614673 0.1274523 0.054450966 0.10732133 -0.13611542 0.091203004 -0.040877514 0.048574015 0.04613468 0.010223892 0.06874257 0.057339285 -0.044536892 0.03895744 -0.025629612 -0.012830006 -0.02319601 -0.021847486 -0.10036701 0.08365104 -0.021732908 -0.020749528 0.124279045 0.07508599 0.07186428 0.04336499 0.12297136 0.07160587 0.022770945 0.0069161286 0.100048654 0.03156039 0.02208392 -0.012292141 0.02386183 -0.045525204
enough 0.055961095 0.09261515 -0.02025147 -0.035171125 0.019626595 -0.14674096 0.06467179 0.15790427 -0.059581324 -0.0732712 -0.035433017 -0.09846731 -0.0052258815 0.03329158 0.061913684 -0.04007924 -0.0052434965 -0.06285913 -0.051430352 -0.17625608 0.021600641 0.025326308 0.02464298 -0.061211053 -0.023825828 0.052766282 -0.070178255 -0.023879208 -0.055121217 0.0027912115 0.027533418 -0.0064689983 0.047060013 -0.13156272 -0.057256803 0.09017018 0.032055374 -0.056724325 -0.022647575 -0.11689515 -0.01210315 -0.03134734 -0.046213932 0.0010794693 0.10872494 -0.0060906867 -0.037469327 -0.018418847 0.044404313 0.037435837 0.03583074 -0.05704152 0.022387205 -0.028318947 -0.010597661 0.025392827 0.007611792 -0.0060135913 -0.07961763 -0.03239666 0.0382832 -0.01738635 0.005423105 0.033224568 -0.0017069761 0.14192855 0.06155122 0.115501836 -0.1451339 0.101721995 -0.039055273 0.058096197 0.052158523 0.026980564 0.072938465 0.055416927 -0.04790595 0.04243674 -0.02286109 -0.016720776 -0.02318882 -0.0059023597 -0.09989509 0.09415253 -0.012892521 -0.036647685 0.15687834 0.097944215 0.0712573 0.03934958 0.14338246 0.078066826 0.010859337 0.010085061 0.0985521 0.045615997 0.029110914 -0.015585697 0.02212231 -0.035968915
reason 0.054415844 0.09718336 -0.016559409 -0.020441908 0.034316853 -0.1381744 0.060839683 0.15849906 -0.06324036 -0.065987155 -0.03356448 -0.09691831 -0.01369994 0.03748762 0.07205931 -0.051707663 -0.006061754 -0.052229814 -0.033069525 -0.16860962 0.017495872 0.027275449 0.021498192 -0.060917232 -0.017710142 0.039696317 -0.0670091 -0.040380787 -0.051556025 0.002373928 0.028214343 -0.014565173 0.06325493 -0.1309139 -0.052197464 0.096480265 0.0289191 -0.06134727 -0.018464334 -0.116079934 0.0010191096 -0.027041813 -0.050958566 0.0020763252 0.09873504 -0.0067141834 -0.03866371 -0.01752968 0.048789352 0.029771158 0.04358973 -0.04627823 0.012441398 -0.024272226 -0.0012828789 0.024396962 0.008005945 -0.003187107 -0.06474594 -0.043336317 0.037666872 0.0002467307 0.010483396 0.021153115 -0.011836777 0.12558556 0.05236629 0.10805765 -0.14473158 0.09837136 -0.038166646 0.055461828 0.04825216 0.02187976 0.07901625 0.04661338 -0.03279225 0.032905716 -0.03987541 -0.019342707 -0.025689939 -0.0060899416 -0.100090005 0.077119164 -0.018832978 -0.03769202 0.14206953 0.09918254 0.07833868 0.03946907 0.13432269 0.071956955 0.0073804623 0.01708306 0.10803735 0.04625364 0.029805236 -0.010383432 0.022302646 -0.05325227
believe 0.04992218 0.08359417 -0.016454343 -0.025893344 0.024735084 -0.12158055 0.05678767 0.1443078 -0.04512614 -0.06333329 -0.028777996 -0.099892214 -0.013193249 0.031750977 0.059791267 -0.03379751 -0.0031089282 -0.05465915 -0.033713676 -0.15127341 0.02069385 0.024205139 0.03585601 -0.05479967 -0.026253927 0.045675825 -0.043482296 -0.018506443 -0.04702532 0.0048887325 0.041217614 -0.0195496 0.057006594 -0.110653065 -0.053633142 0.084769286 0.03743265 -0.056312293 -0.016331607 -0.105953105 -0.015086955 -0.015904909 -0.051738262 0.0015617642 0.09341972 -0.00013501372 -0.022881087 -0.03152223 0.047434732 0.02041504 0.03326964 -0.039423484 0.010791065 -0.017946327 -0.010841807 0.015486462 0.014496367 -0.00739553 -0.056042247 -0.028852243 0.03715566 -0.0041815937 0.0008143282 0.03378032 -0.0138764 0.120420285 0.03918905 0.09501967 -0.11854182 0.08751501 -0.0489186 0.038325995 0.029903933 0.027413497 0.057212297 0.044356447 -0.043100283 0.024945403 -0.03283186 -0.0054721865 -0.015046113 -0.009200966 -0.07949847 0.077208534 -0.0075324243 -0.022040278 0.1307117 0.081472926 0.0558514 0.03168348 0.12090116 0.05421909 0.017368726 0.0043825465 0.097995706 0.036938503 0.024574755 -0.01103357 0.023639055 -0.047001086
stylish 0.03155513 0.07589744 -0.017038746 -0.021999529 0.02457682 -0.10003413 0.05369857 0.12198571 -0.035450704 -0.06379068 -0.016800705 -0.069992654 -0.007226286 0.030615302 0.04349488 -0.03833474 0.005737102 -0.042114116 -0.02832266 -0.13020205 0.024089571 0.009713015 0.017805953 -0.043569837 -0.007512946 0.029311506 -0.041866243 -0.024057474 -0.045666646 -0.0059523517 0.018533677 -0.002916761 0.037664574 -0.09919725 -0.03985727 0.07362476 0.034147438 -0.051634993 -0.019758053 -0.08508191 -0.008654778 -0.018839471 -0.03143927 -0.004352781 0.0826683 -0.00781848 -0.025214914 -0.012528437 0.045010615 0.0253607 0.028616523 -0.035441145 0.009835393 -0.014558728 -0.004519519 0.013929383 0.011803127 -0.012595574 -0.051299434 -0.033926204 0.033059288 -0.0010602853 0.01310691 0.014641899 -0.013880646 0.10542477 0.041637085 0.08087196 -0.11054008 0.07485177 -0.044607624 0.03872893 0.0289277 0.015329681 0.05683076 0.04110409 -0.036240496 0.026275 -0.030383589 -0.01110687 -0.016116992 -0.002548438 -0.082369 0.06630199 -0.006665689 -0.014948787 0.114628136 0.05966054 0.057853322 0.03774191 0.1020228 0.05531555 0.011641069 0.013660185 0.07909964 0.039576754 0.01665889 -0.013701106 0.021553729 -0.039780933
attire 0.051847413 0.09153422 -0.017732665 -0.033160552 0.025101667 -0.14771233 0.06440127 0.14331912 -0.058062933 -0.06696047 -0.027191816 -0.09941428 -0.0020206273 0.030191286 0.06982073 -0.048746143 -0.0067172605 -0.0466279 -0.04233052 -0.15919475 0.027489783 0.018643098 0.040243786 -0.05063469 -0.023690728 0.043503147 -0.05379986 -0.039184395 -0.039402064 -0.00033406678 0.043679588 -0.008155893 0.052844066 -0.12012323 -0.058154654 0.09895124 0.0360517 -0.046804726 -0.03275694 -0.118473 0.0012327482 -0.01995203 -0.05834216 -0.01207802 0.08954323 -0.011210793 -0.040956367 -0.02679005 0.053515695 0.022406962 0.036057647 -0.061558556 0.013537506 -0.027075322 -0.015048673 0.023598362 -0.00010128512 -0.019499777 -0.06941599 -0.034067284 0.04846858 -0.0017699623 0.0028860818 0.021141574 -0.0022584854 0.13276635 0.056997526 0.098270856 -0.14078675 0.095022425 -0.055893775 0.055450663 0.041464027 0.02882642 0.06038624 0.06093939 -0.038952246 0.04104601 -0.03871102 -0.014455164 -0.014812115 -0.025515685 -0.10926581 0.088859 -0.031825442 -0.028359655 0.14439063 0.08120497 0.07168094 0.039363004 0.1362301 0.0723286 0.011582201 0.009854703 0.104446895 0.03239095 0.0355792 -0.0070927306 0.013545221 -0.048224
dress 0.05673661 0.082100555 -0.013656923 -0.03460624 0.033961613 -0.1466047 0.05603999 0.15523478 -0.04406085 -0.06955691 -0.031981364 -0.10240261 -0.011910787 0.03687269 0.056493826 -0.04461933 -0.01122855 -0.06297703 -0.049727198 -0.16105817 0.028622743 0.025599204 0.03642253 -0.056329213 -0.019401724 0.05316489 -0.06476634 -0.030344486 -0.04907505 0.0021455921 0.031722464 -0.011948435 0.06014438 -0.12910049 -0.063689865 0.09806017 0.030691897 -0.05152246 -0.03480675 -0.10395001 -0.0060513895 -0.021405589 -0.055925466 -0.0031329507 0.10148598 -0.022322001 -0.030279003 -0.03311581 0.061104815 0.037496205 0.031206843 -0.057631616 0.012038329 -0.017166642 0.004328533 0.029966926 0.017005868 -0.017438587 -0.06977214 -0.042913273 0.03140701 -0.0156067675 0.007964579 0.02540427 -0.015329141 0.13097543 0.050844397 0.095301144 -0.13201839 0.103794955 -0.057793763 0.04963999 0.038375515 0.028277358 0.06723575 0.06021771 -0.03002207 0.02895516 -0.043607805 -0.012704295 -0.014089072 -0.017648939 -0.103391185 0.08608007 -0.031126074 -0.030203301 0.13606016 0.10044232 0.061598413 0.046817046 0.12861915 0.06929024 0.014799705 0.013551412 0.102794796 0.042302474 0.025860738 0.0039015447 0.012155883 -0.052852202
looks 0.027998663 0.06727594 -0.013457081 -0.02348234 0.021424076 -0.100551926 0.044870235 0.11219376 -0.028036421 -0.050339736 -0.017537732 -0.064345375 0.008118017 0.024976537 0.043341346 -0.034668162 -0.007880423 -0.034641918 -0.027199775 -0.11492793 0.021745322 0.0057534925 0.016598543 -0.049408045 -0.008565318 0.0350643 -0.04127635 -0.012604262 -0.03097201 -0.011994215 0.01645432 -0.013066342 0.029422322 -0.074741304 -0.030058336 0.06327373 0.021108875 -0.04047529 -0.010960241 -0.07894877 -0.0068505877 -0.022032354 -0.038139727 -0.011325992 0.06706642 -0.015247565 -0.015636621 -0.024838807 0.028097292 0.021418096 0.016731774 -0.031758685 0.0070629437 -0.017951228 0.005412418 0.022279449 0.005529596 -0.00075388886 -0.04565655 -0.018161835 0.0329064 -0.014592662 0.00809154 0.010735797 -0.009980848 0.09473944 0.030261759 0.06547556 -0.0886043 0.07521455 -0.024616733 0.024575366 0.037685994 0.021587389 0.04042658 0.03149198 -0.023365589 0.012396992 -0.02416016 0.005828105 -0.01782061 -0.018201694 -0.07274554 0.04639368 -0.013323421 -0.016312588 0.09466047 0.05584896 0.05698082 0.014455265 0.08037177 0.03631772 0.022564707 0.0075373217 0.06083429 0.019270947 0.02549779 -0.0049622585 0.0057504997 -0.025887774
airport 0.025651207 0.06573266 -0.004495442 -0.021565761 0.01228519 -0.0845886 0.029226242 0.09944586 -0.028449867 -0.03824809 -0.02742118 -0.06518161 -0.0083940895 0.03152727 0.04903373 -0.028952835 -0.011995542 -0.028289879 -0.027778724 -0.09925527 0.009555216 0.009518978 0.017102722 -0.03010395 -0.02322622 0.024870938 -0.038129568 -0.02286949 -0.024340767 -0.0021379483 0.020438151 -0.017031455 0.02412174 -0.07468758 -0.03362593 0.04705764 0.027719501 -0.022921404 -0.009674312 -0.0717839 -0.003929771 -0.0073078913 -0.039883062 -0.008808897 0.05102083 -0.002488077 -0.03058623 -0.014445505 0.040015772 0.02135699 0.013448874 -0.02662599 0.016575417 -0.025268361 0.0033540195 0.025932768 0.011779514 -0.01252058 -0.03613765 -0.026453665 0.017167933 -0.0021717749 0.0009259332 0.01744917 -0.012991028 0.07248863 0.028575473 0.06614296 -0.08391275 0.07038456 -0.025435746 0.018732348 0.019625839 0.01095516 0.040193994 0.023676297 -0.012051288 0.024766484 -0.027599502 0.001628121 -0.01573154 -0.017102689 -0.063341685 0.058650423 -0.01942779 -0.024764247 0.08514128 0.060529836 0.048972193 0.014822811 0.07033114 0.04265205 0.015120353 0.012021793 0.06482976 0.025001545 0.014629884 0.001955949 0.010483394 -0.021644522
side 0.03920101 0.07462551 -0.016773652 -0.017738631 0.022450551 -0.10674025 0.055147216 0.11365176 -0.032475468 -0.05346006 -0.010827275 -0.06999014 -0.0024735385 0.03365001 0.04916232 -0.024894634 -0.0025765079 -0.036084104 -0.035382386 -0.12204311 0.008810266 0.0090671675 0.021376966 -0.04304515 -0.015901823 0.034474794 -0.036024034 -0.029154755 -0.029628841 0.003696075 0.033409238 -0.006575479 0.03940543 -0.087012544 -0.045584492 0.05791512 0.024238924 -0.036941 -0.014946083 -0.083323546 3.451194e-05 -0.020912724 -0.032515157 -0.0059751133 0.061616078 -0.00618086 -0.023594098 -0.02248009 0.03238575 0.033031292 0.01792961 -0.03476291 0.008503758 -0.007870055 0.0006051526 0.023741653 0.00042154038 -0.009987188 -0.057224028 -0.027682345 0.03549327 -0.018037742 0.010979855 0.026912412 0.0006361609 0.08937162 0.043054763 0.06256773 -0.09716421 0.080659464 -0.029541014 0.029689386 0.029480878 0.0050452994 0.048202045 0.04189055 -0.031822193 0.029287053 -0.028220538 0.0020550513 -0.010841267 -0.0073841144 -0.07448452 0.049258146 -0.021940561 -0.023990931 0.09169137 0.07480021 0.0546387 0.025157386 0.10111774 0.04727523 0.013881586 0.009547789 0.077163905 0.03102537 0.015842779 -0.0066047125 0.0054377746 -0.026577683
morning 0.05618327 0.09344038 -0.009302432 -0.037183773 0.032653924 -0.14091173 0.060930945 0.14238411 -0.042271428 -0.07682743 -0.024829736 -0.10519928 -0.0032527354 0.04568318 0.04788007 -0.03307191 -0.0136085 -0.044943076 -0.049507372 -0.1629355 0.015925 0.02232721 0.029230688 -0.05621674 -0.031336904 0.05606136 -0.053144395 -0.034156118 -0.049940266 0.005789049 0.03907746 -0.020582747 0.05601937 -0.12280026 -0.04959406 0.09489255 0.028359635 -0.048155867 -0.02024156 -0.11162822 -0.0031234985 -0.017787715 -0.062050387 -0.0068564713 0.098483086 -0.010098494 -0.020370387 -0.027701378 0.057190172 0.022588417 0.039938048 -0.061603043 0.019126175 -0.01631506 -0.007393943 0.033532605 -0.003033696 -0.012713717 -0.06400375 -0.040731695 0.045312993 -0.018051984 0.0073826015 0.03855858 -0.0016410412 0.12340776 0.05783765 0.08765765 -0.13351421 0.09843489 -0.047990076 0.052658714 0.05103252 0.015253621 0.061768282 0.059072483 -0.039993327 0.022218598 -0.03247647 -0.01414685 -0.020873457 -0.013093797 -0.10446968 0.07928852 -0.025992101 -0.03501794 0.13812175 0.08883129 0.0627906 0.04482709 0.12318933 0.07371093 0.020184064 0.016446808 0.1042295 0.033696238 0.025111334 -0.0069052586 0.0212857 -0.048727173
jaggo 0.033755004 0.07260638 -0.01645915 -0.017160593 0.01779216 -0.09499026 0.04389979 0.09598486 -0.027987218 -0.042643357 -0.03047654 -0.082104705 -0.00025662247 0.027083976 0.040325087 -0.023190962 -0.011265724 -0.042212885 -0.022200856 -0.117197394 0.012133131 0.021581804 0.031287808 -0.04657341 -0.023567934 0.031872753 -0.032971904 -0.023839522 -0.030229308 -0.0051497915 0.031055087 -0.009366123 0.0447562 -0.075072885 -0.046979684 0.06875319 0.014813071 -0.04605581 -0.012230558 -0.07525057 0.00018649771 -0.026964087 -0.02903246 -0.011579121 0.05940628 -0.006343051 -0.027069349 -0.015502474 0.03087978 0.01577885 0.03230544 -0.041932195 0.02059595 -0.020859111 -0.0047713076 0.024298627 0.0118920095 -0.008809864 -0.060967706 -0.027479574 0.035336096 9.898955e-05 0.0018236933 0.025984056 0.0031966402 0.08215787 0.03303361 0.0742256 -0.10092735 0.06443047 -0.027057014 0.03000487 0.027371513 0.016505057 0.056266837 0.04273532 -0.030248668 0.019405017 -0.012045562 -0.005133327 -0.021025274 -0.019977404 -0.076753914 0.0653013 -0.0115433335 -0.029964054 0.10725219 0.06001413 0.049784306 0.021794736 0.09377725 0.050518136 0.014407033 0.0048645367 0.06536915 0.028786635 0.014433307 -0.0040515075 0.021833299 -0.028925525
celebration 0.03223033 0.048952 -0.0069632092 -0.013272153 0.022202037 -0.06388778 0.023632502 0.0841215 -0.032544043 -0.03651398 -0.02505321 -0.06241141 -0.0040427046 0.02697326 0.03276437 -0.024602592 -0.008407159 -0.020780947 -0.012877136 -0.07485416 0.01270931 -0.0016637353 0.02411407 -0.033262387 -0.008527549 0.028181244 -0.019936804 -0.01640227 -0.0300798 -0.0020631708 0.020990992 -0.00583051 0.024220636 -0.051256455 -0.023890583 0.04003611 0.027003463 -0.03286852 -0.017412202 -0.048783254 -0.010418629 -0.0049536414 -0.033255104 -0.010883311 0.038074546 -0.0028965697 -0.010795015 -0.005552799 0.029158505 0.021286532 0.01771465 -0.03568441 0.019691601 -0.019591805 0.004529459 0.01205184 0.0026912868 -0.008221409 -0.02742058 -0.023876248 0.021496033 -0.0042851395 0.007222858 0.009053548 -0.015657566 0.055392083 0.020293275 0.05211496 -0.07564819 0.06001992 -0.020065572 0.017735818 0.01749078 0.0032409385 0.025497193 0.024462853 -0.018265843 0.025826152 -0.012167986 -0.004661264 -0.0017872317 -0.014050327 -0.05958488 0.043343816 -0.016656915 -0.020847348 0.07329492 0.036543224 0.033661064 0.02163023 0.06544191 0.03439924 0.00735753 0.016086536 0.052770253 0.017996745 0.007388753 -0.009743795 0.007507426 -0.025481656
